=== Run information ===

Scheme:       weka.classifiers.trees.J48 -C 0.25 -M 2
Relation:     C:\Users\stephanie\Downloads\MQ2007\Fold1\test
Instances:    9640
Attributes:   47
              1
              2
              3
              4
              5
              6
              7
              8
              9
              10
              11
              12
              13
              14
              15
              16
              17
              18
              19
              20
              21
              22
              23
              24
              25
              26
              27
              28
              29
              30
              31
              32
              33
              34
              35
              36
              37
              38
              39
              40
              41
              42
              43
              44
              45
              46
              class
Test mode:    10-fold cross-validation

=== Classifier model (full training set) ===

J48 pruned tree
------------------

1 <= 0.01304
|   21 <= 0.568985
|   |   16 <= 0.009216: NONE (598.0/12.0)
|   |   16 > 0.009216
|   |   |   24 <= 0.607043
|   |   |   |   5 <= 0.005988
|   |   |   |   |   14 <= 0.466677
|   |   |   |   |   |   11 <= 0.001208
|   |   |   |   |   |   |   21 <= 0.42974: NONE (102.0/2.0)
|   |   |   |   |   |   |   21 > 0.42974
|   |   |   |   |   |   |   |   16 <= 0.019908: NONE (3.0)
|   |   |   |   |   |   |   |   16 > 0.019908: LOW (2.0)
|   |   |   |   |   |   11 > 0.001208
|   |   |   |   |   |   |   44 <= 0.363636: NONE (32.0/1.0)
|   |   |   |   |   |   |   44 > 0.363636
|   |   |   |   |   |   |   |   16 <= 0.01216: NONE (4.0/2.0)
|   |   |   |   |   |   |   |   16 > 0.01216
|   |   |   |   |   |   |   |   |   44 <= 0.625
|   |   |   |   |   |   |   |   |   |   21 <= 0.031987: LOW (6.0)
|   |   |   |   |   |   |   |   |   |   21 > 0.031987
|   |   |   |   |   |   |   |   |   |   |   45 <= 0.683333: NONE (18.0/2.0)
|   |   |   |   |   |   |   |   |   |   |   45 > 0.683333: LOW (2.0)
|   |   |   |   |   |   |   |   |   44 > 0.625: NONE (13.0/1.0)
|   |   |   |   |   14 > 0.466677
|   |   |   |   |   |   42 <= 0.037118: LOW (3.0)
|   |   |   |   |   |   42 > 0.037118: NONE (4.0)
|   |   |   |   5 > 0.005988: NONE (132.0/2.0)
|   |   |   24 > 0.607043
|   |   |   |   22 <= 0.565413
|   |   |   |   |   42 <= 0.061033: LOW (7.0)
|   |   |   |   |   42 > 0.061033: NONE (3.0/1.0)
|   |   |   |   22 > 0.565413: NONE (15.0)
|   21 > 0.568985
|   |   19 <= 0.857143
|   |   |   39 <= 0.860721
|   |   |   |   16 <= 0.018214
|   |   |   |   |   11 <= 0.026011
|   |   |   |   |   |   21 <= 0.710723
|   |   |   |   |   |   |   4 <= 0.4
|   |   |   |   |   |   |   |   37 <= 0.606732
|   |   |   |   |   |   |   |   |   19 <= 0.588235: NONE (19.0/1.0)
|   |   |   |   |   |   |   |   |   19 > 0.588235: LOW (4.0)
|   |   |   |   |   |   |   |   37 > 0.606732: NONE (100.0/2.0)
|   |   |   |   |   |   |   4 > 0.4
|   |   |   |   |   |   |   |   43 <= 0.033898
|   |   |   |   |   |   |   |   |   20 <= 0.001201: NONE (8.0)
|   |   |   |   |   |   |   |   |   20 > 0.001201
|   |   |   |   |   |   |   |   |   |   22 <= 0.596199
|   |   |   |   |   |   |   |   |   |   |   21 <= 0.58642: LOW (2.0)
|   |   |   |   |   |   |   |   |   |   |   21 > 0.58642: NONE (4.0)
|   |   |   |   |   |   |   |   |   |   22 > 0.596199: LOW (6.0)
|   |   |   |   |   |   |   |   43 > 0.033898: NONE (16.0)
|   |   |   |   |   |   21 > 0.710723
|   |   |   |   |   |   |   37 <= 0.691855
|   |   |   |   |   |   |   |   39 <= 0.042796: NONE (3.0/1.0)
|   |   |   |   |   |   |   |   39 > 0.042796: LOW (13.0/2.0)
|   |   |   |   |   |   |   37 > 0.691855
|   |   |   |   |   |   |   |   1 <= 0.000756
|   |   |   |   |   |   |   |   |   11 <= 0.002018
|   |   |   |   |   |   |   |   |   |   44 <= 0.083333: LOW (2.0)
|   |   |   |   |   |   |   |   |   |   44 > 0.083333
|   |   |   |   |   |   |   |   |   |   |   44 <= 0.444444: NONE (9.0)
|   |   |   |   |   |   |   |   |   |   |   44 > 0.444444
|   |   |   |   |   |   |   |   |   |   |   |   2 <= 0.045455
|   |   |   |   |   |   |   |   |   |   |   |   |   22 <= 0.764938: NONE (2.0)
|   |   |   |   |   |   |   |   |   |   |   |   |   22 > 0.764938: LOW (3.0)
|   |   |   |   |   |   |   |   |   |   |   |   2 > 0.045455: NONE (2.0)
|   |   |   |   |   |   |   |   |   11 > 0.002018: LOW (10.0)
|   |   |   |   |   |   |   |   1 > 0.000756
|   |   |   |   |   |   |   |   |   32 <= 0.626794
|   |   |   |   |   |   |   |   |   |   32 <= 0.522878
|   |   |   |   |   |   |   |   |   |   |   19 <= 0.653846
|   |   |   |   |   |   |   |   |   |   |   |   14 <= 0.275436
|   |   |   |   |   |   |   |   |   |   |   |   |   37 <= 0.725964
|   |   |   |   |   |   |   |   |   |   |   |   |   |   11 <= 0.00791: NONE (4.0)
|   |   |   |   |   |   |   |   |   |   |   |   |   |   11 > 0.00791: HIGH (2.0)
|   |   |   |   |   |   |   |   |   |   |   |   |   37 > 0.725964
|   |   |   |   |   |   |   |   |   |   |   |   |   |   19 <= 0.62963
|   |   |   |   |   |   |   |   |   |   |   |   |   |   |   15 <= 0.022544
|   |   |   |   |   |   |   |   |   |   |   |   |   |   |   |   20 <= 0.004962
|   |   |   |   |   |   |   |   |   |   |   |   |   |   |   |   |   45 <= 0.534483: NONE (43.0)
|   |   |   |   |   |   |   |   |   |   |   |   |   |   |   |   |   45 > 0.534483
|   |   |   |   |   |   |   |   |   |   |   |   |   |   |   |   |   |   18 <= 0.2: LOW (2.0)
|   |   |   |   |   |   |   |   |   |   |   |   |   |   |   |   |   |   18 > 0.2: NONE (4.0)
|   |   |   |   |   |   |   |   |   |   |   |   |   |   |   |   20 > 0.004962
|   |   |   |   |   |   |   |   |   |   |   |   |   |   |   |   |   25 <= 0.661031
|   |   |   |   |   |   |   |   |   |   |   |   |   |   |   |   |   |   20 <= 0.005412: LOW (3.0)
|   |   |   |   |   |   |   |   |   |   |   |   |   |   |   |   |   |   20 > 0.005412
|   |   |   |   |   |   |   |   |   |   |   |   |   |   |   |   |   |   |   30 <= 0.484105: NONE (22.0/2.0)
|   |   |   |   |   |   |   |   |   |   |   |   |   |   |   |   |   |   |   30 > 0.484105: LOW (2.0)
|   |   |   |   |   |   |   |   |   |   |   |   |   |   |   |   |   25 > 0.661031: LOW (4.0)
|   |   |   |   |   |   |   |   |   |   |   |   |   |   |   15 > 0.022544: LOW (3.0)
|   |   |   |   |   |   |   |   |   |   |   |   |   |   19 > 0.62963: LOW (3.0)
|   |   |   |   |   |   |   |   |   |   |   |   14 > 0.275436
|   |   |   |   |   |   |   |   |   |   |   |   |   3 <= 0.2
|   |   |   |   |   |   |   |   |   |   |   |   |   |   41 <= 0.001808
|   |   |   |   |   |   |   |   |   |   |   |   |   |   |   1 <= 0.004249: NONE (3.0)
|   |   |   |   |   |   |   |   |   |   |   |   |   |   |   1 > 0.004249
|   |   |   |   |   |   |   |   |   |   |   |   |   |   |   |   20 <= 0.005745: LOW (4.0)
|   |   |   |   |   |   |   |   |   |   |   |   |   |   |   |   20 > 0.005745: NONE (3.0/1.0)
|   |   |   |   |   |   |   |   |   |   |   |   |   |   41 > 0.001808: LOW (11.0/1.0)
|   |   |   |   |   |   |   |   |   |   |   |   |   3 > 0.2
|   |   |   |   |   |   |   |   |   |   |   |   |   |   16 <= 0.007753: NONE (13.0/1.0)
|   |   |   |   |   |   |   |   |   |   |   |   |   |   16 > 0.007753: LOW (4.0)
|   |   |   |   |   |   |   |   |   |   |   19 > 0.653846: NONE (20.0)
|   |   |   |   |   |   |   |   |   |   32 > 0.522878
|   |   |   |   |   |   |   |   |   |   |   2 <= 0.027778: NONE (3.0)
|   |   |   |   |   |   |   |   |   |   |   2 > 0.027778
|   |   |   |   |   |   |   |   |   |   |   |   2 <= 0.375: LOW (4.0/1.0)
|   |   |   |   |   |   |   |   |   |   |   |   2 > 0.375: HIGH (3.0)
|   |   |   |   |   |   |   |   |   32 > 0.626794
|   |   |   |   |   |   |   |   |   |   42 <= 0.411765: NONE (65.0/3.0)
|   |   |   |   |   |   |   |   |   |   42 > 0.411765: LOW (3.0/1.0)
|   |   |   |   |   11 > 0.026011
|   |   |   |   |   |   38 <= 0.929178: NONE (205.0/10.0)
|   |   |   |   |   |   38 > 0.929178
|   |   |   |   |   |   |   44 <= 0.916667
|   |   |   |   |   |   |   |   18 <= 0.4375: NONE (18.0/1.0)
|   |   |   |   |   |   |   |   18 > 0.4375: HIGH (4.0/1.0)
|   |   |   |   |   |   |   44 > 0.916667: LOW (2.0)
|   |   |   |   16 > 0.018214
|   |   |   |   |   23 <= 0.372206: LOW (20.0/2.0)
|   |   |   |   |   23 > 0.372206
|   |   |   |   |   |   44 <= 0.916667
|   |   |   |   |   |   |   34 <= 0.310212
|   |   |   |   |   |   |   |   21 <= 0.666566
|   |   |   |   |   |   |   |   |   3 <= 0.5: NONE (7.0/1.0)
|   |   |   |   |   |   |   |   |   3 > 0.5: LOW (2.0)
|   |   |   |   |   |   |   |   21 > 0.666566: NONE (21.0)
|   |   |   |   |   |   |   34 > 0.310212: LOW (3.0/1.0)
|   |   |   |   |   |   44 > 0.916667: LOW (4.0)
|   |   |   39 > 0.860721
|   |   |   |   22 <= 0.926959
|   |   |   |   |   32 <= 0.852627
|   |   |   |   |   |   17 <= 0.036036
|   |   |   |   |   |   |   43 <= 0.088235: HIGH (2.0)
|   |   |   |   |   |   |   43 > 0.088235
|   |   |   |   |   |   |   |   2 <= 0.027778: LOW (3.0)
|   |   |   |   |   |   |   |   2 > 0.027778
|   |   |   |   |   |   |   |   |   21 <= 0.901888: LOW (2.0)
|   |   |   |   |   |   |   |   |   21 > 0.901888: HIGH (2.0)
|   |   |   |   |   |   17 > 0.036036
|   |   |   |   |   |   |   39 <= 0.883536: NONE (4.0/1.0)
|   |   |   |   |   |   |   39 > 0.883536: LOW (10.0)
|   |   |   |   |   32 > 0.852627: NONE (4.0)
|   |   |   |   22 > 0.926959
|   |   |   |   |   45 <= 0.123077: HIGH (2.0)
|   |   |   |   |   45 > 0.123077: NONE (13.0/1.0)
|   |   19 > 0.857143: NONE (83.0/1.0)
1 > 0.01304
|   14 <= 0.802278
|   |   13 <= 0.922583
|   |   |   16 <= 0.005066
|   |   |   |   37 <= 0.81742: NONE (234.0/6.0)
|   |   |   |   37 > 0.81742
|   |   |   |   |   43 <= 0.024194: NONE (53.0/2.0)
|   |   |   |   |   43 > 0.024194
|   |   |   |   |   |   13 <= 0.760512
|   |   |   |   |   |   |   15 <= 0.017622: LOW (5.0)
|   |   |   |   |   |   |   15 > 0.017622
|   |   |   |   |   |   |   |   24 <= 0.806747
|   |   |   |   |   |   |   |   |   40 <= 0.829668
|   |   |   |   |   |   |   |   |   |   21 <= 0.844409
|   |   |   |   |   |   |   |   |   |   |   43 <= 0.058824: NONE (3.0)
|   |   |   |   |   |   |   |   |   |   |   43 > 0.058824: LOW (6.0)
|   |   |   |   |   |   |   |   |   |   21 > 0.844409: NONE (16.0)
|   |   |   |   |   |   |   |   |   40 > 0.829668
|   |   |   |   |   |   |   |   |   |   38 <= 0.938471: LOW (9.0)
|   |   |   |   |   |   |   |   |   |   38 > 0.938471: NONE (2.0)
|   |   |   |   |   |   |   |   24 > 0.806747
|   |   |   |   |   |   |   |   |   18 <= 0.142857
|   |   |   |   |   |   |   |   |   |   44 <= 0.714286: LOW (4.0)
|   |   |   |   |   |   |   |   |   |   44 > 0.714286: NONE (3.0)
|   |   |   |   |   |   |   |   |   18 > 0.142857: NONE (36.0/1.0)
|   |   |   |   |   |   13 > 0.760512: NONE (4.0/1.0)
|   |   |   16 > 0.005066
|   |   |   |   37 <= 0.708045
|   |   |   |   |   3 <= 0.888889
|   |   |   |   |   |   3 <= 0.666667
|   |   |   |   |   |   |   4 <= 0.75
|   |   |   |   |   |   |   |   33 <= 0.676382
|   |   |   |   |   |   |   |   |   27 <= 0.666457
|   |   |   |   |   |   |   |   |   |   27 <= 0.475745
|   |   |   |   |   |   |   |   |   |   |   14 <= 0.136714
|   |   |   |   |   |   |   |   |   |   |   |   34 <= 0.005953
|   |   |   |   |   |   |   |   |   |   |   |   |   39 <= 0.267172
|   |   |   |   |   |   |   |   |   |   |   |   |   |   42 <= 0.006061
|   |   |   |   |   |   |   |   |   |   |   |   |   |   |   11 <= 0.017898
|   |   |   |   |   |   |   |   |   |   |   |   |   |   |   |   11 <= 0.017685: NONE (19.0)
|   |   |   |   |   |   |   |   |   |   |   |   |   |   |   |   11 > 0.017685: HIGH (2.0)
|   |   |   |   |   |   |   |   |   |   |   |   |   |   |   11 > 0.017898
|   |   |   |   |   |   |   |   |   |   |   |   |   |   |   |   17 <= 0.064516: NONE (100.0/16.0)
|   |   |   |   |   |   |   |   |   |   |   |   |   |   |   |   17 > 0.064516
|   |   |   |   |   |   |   |   |   |   |   |   |   |   |   |   |   17 <= 0.071429: LOW (17.0)
|   |   |   |   |   |   |   |   |   |   |   |   |   |   |   |   |   17 > 0.071429
|   |   |   |   |   |   |   |   |   |   |   |   |   |   |   |   |   |   44 <= 0.916667
|   |   |   |   |   |   |   |   |   |   |   |   |   |   |   |   |   |   |   44 <= 0.625
|   |   |   |   |   |   |   |   |   |   |   |   |   |   |   |   |   |   |   |   44 <= 0.285714: NONE (10.0/1.0)
|   |   |   |   |   |   |   |   |   |   |   |   |   |   |   |   |   |   |   |   44 > 0.285714
|   |   |   |   |   |   |   |   |   |   |   |   |   |   |   |   |   |   |   |   |   43 <= 0.116564
|   |   |   |   |   |   |   |   |   |   |   |   |   |   |   |   |   |   |   |   |   |   19 <= 0.266667
|   |   |   |   |   |   |   |   |   |   |   |   |   |   |   |   |   |   |   |   |   |   |   18 <= 0.0625: NONE (5.0)
|   |   |   |   |   |   |   |   |   |   |   |   |   |   |   |   |   |   |   |   |   |   |   18 > 0.0625: LOW (3.0/1.0)
|   |   |   |   |   |   |   |   |   |   |   |   |   |   |   |   |   |   |   |   |   |   19 > 0.266667: LOW (11.0/1.0)
|   |   |   |   |   |   |   |   |   |   |   |   |   |   |   |   |   |   |   |   |   43 > 0.116564: NONE (3.0)
|   |   |   |   |   |   |   |   |   |   |   |   |   |   |   |   |   |   |   44 > 0.625: NONE (13.0)
|   |   |   |   |   |   |   |   |   |   |   |   |   |   |   |   |   |   44 > 0.916667: LOW (4.0)
|   |   |   |   |   |   |   |   |   |   |   |   |   |   42 > 0.006061: NONE (406.0/41.0)
|   |   |   |   |   |   |   |   |   |   |   |   |   39 > 0.267172
|   |   |   |   |   |   |   |   |   |   |   |   |   |   45 <= 0.816327
|   |   |   |   |   |   |   |   |   |   |   |   |   |   |   44 <= 0.411765
|   |   |   |   |   |   |   |   |   |   |   |   |   |   |   |   44 <= 0.375
|   |   |   |   |   |   |   |   |   |   |   |   |   |   |   |   |   12 <= 0.201376
|   |   |   |   |   |   |   |   |   |   |   |   |   |   |   |   |   |   2 <= 0.181818
|   |   |   |   |   |   |   |   |   |   |   |   |   |   |   |   |   |   |   24 <= 0.287052
|   |   |   |   |   |   |   |   |   |   |   |   |   |   |   |   |   |   |   |   39 <= 0.724857
|   |   |   |   |   |   |   |   |   |   |   |   |   |   |   |   |   |   |   |   |   16 <= 0.192273
|   |   |   |   |   |   |   |   |   |   |   |   |   |   |   |   |   |   |   |   |   |   39 <= 0.329433
|   |   |   |   |   |   |   |   |   |   |   |   |   |   |   |   |   |   |   |   |   |   |   19 <= 0.285714: NONE (7.0/1.0)
|   |   |   |   |   |   |   |   |   |   |   |   |   |   |   |   |   |   |   |   |   |   |   19 > 0.285714: LOW (4.0)
|   |   |   |   |   |   |   |   |   |   |   |   |   |   |   |   |   |   |   |   |   |   39 > 0.329433: NONE (25.0)
|   |   |   |   |   |   |   |   |   |   |   |   |   |   |   |   |   |   |   |   |   16 > 0.192273
|   |   |   |   |   |   |   |   |   |   |   |   |   |   |   |   |   |   |   |   |   |   19 <= 0.411765
|   |   |   |   |   |   |   |   |   |   |   |   |   |   |   |   |   |   |   |   |   |   |   21 <= 0.376388
|   |   |   |   |   |   |   |   |   |   |   |   |   |   |   |   |   |   |   |   |   |   |   |   16 <= 0.32143: NONE (11.0)
|   |   |   |   |   |   |   |   |   |   |   |   |   |   |   |   |   |   |   |   |   |   |   |   16 > 0.32143
|   |   |   |   |   |   |   |   |   |   |   |   |   |   |   |   |   |   |   |   |   |   |   |   |   42 <= 0.006645: LOW (13.0/1.0)
|   |   |   |   |   |   |   |   |   |   |   |   |   |   |   |   |   |   |   |   |   |   |   |   |   42 > 0.006645
|   |   |   |   |   |   |   |   |   |   |   |   |   |   |   |   |   |   |   |   |   |   |   |   |   |   1 <= 0.421687: LOW (7.0/2.0)
|   |   |   |   |   |   |   |   |   |   |   |   |   |   |   |   |   |   |   |   |   |   |   |   |   |   1 > 0.421687: NONE (10.0/1.0)
|   |   |   |   |   |   |   |   |   |   |   |   |   |   |   |   |   |   |   |   |   |   |   21 > 0.376388
|   |   |   |   |   |   |   |   |   |   |   |   |   |   |   |   |   |   |   |   |   |   |   |   16 <= 0.363316: LOW (11.0)
|   |   |   |   |   |   |   |   |   |   |   |   |   |   |   |   |   |   |   |   |   |   |   |   16 > 0.363316
|   |   |   |   |   |   |   |   |   |   |   |   |   |   |   |   |   |   |   |   |   |   |   |   |   45 <= 0.299065
|   |   |   |   |   |   |   |   |   |   |   |   |   |   |   |   |   |   |   |   |   |   |   |   |   |   22 <= 0.269929: HIGH (4.0)
|   |   |   |   |   |   |   |   |   |   |   |   |   |   |   |   |   |   |   |   |   |   |   |   |   |   22 > 0.269929: LOW (2.0)
|   |   |   |   |   |   |   |   |   |   |   |   |   |   |   |   |   |   |   |   |   |   |   |   |   45 > 0.299065: NONE (4.0/1.0)
|   |   |   |   |   |   |   |   |   |   |   |   |   |   |   |   |   |   |   |   |   |   19 > 0.411765: NONE (10.0)
|   |   |   |   |   |   |   |   |   |   |   |   |   |   |   |   |   |   |   |   39 > 0.724857: LOW (15.0/2.0)
|   |   |   |   |   |   |   |   |   |   |   |   |   |   |   |   |   |   |   24 > 0.287052
|   |   |   |   |   |   |   |   |   |   |   |   |   |   |   |   |   |   |   |   19 <= 0.225806
|   |   |   |   |   |   |   |   |   |   |   |   |   |   |   |   |   |   |   |   |   2 <= 0.01676
|   |   |   |   |   |   |   |   |   |   |   |   |   |   |   |   |   |   |   |   |   |   18 <= 0.766667
|   |   |   |   |   |   |   |   |   |   |   |   |   |   |   |   |   |   |   |   |   |   |   40 <= 0.426789
|   |   |   |   |   |   |   |   |   |   |   |   |   |   |   |   |   |   |   |   |   |   |   |   23 <= 0.826583: NONE (65.0/4.0)
|   |   |   |   |   |   |   |   |   |   |   |   |   |   |   |   |   |   |   |   |   |   |   |   23 > 0.826583
|   |   |   |   |   |   |   |   |   |   |   |   |   |   |   |   |   |   |   |   |   |   |   |   |   16 <= 0.352962: HIGH (2.0)
|   |   |   |   |   |   |   |   |   |   |   |   |   |   |   |   |   |   |   |   |   |   |   |   |   16 > 0.352962: NONE (2.0/1.0)
|   |   |   |   |   |   |   |   |   |   |   |   |   |   |   |   |   |   |   |   |   |   |   40 > 0.426789
|   |   |   |   |   |   |   |   |   |   |   |   |   |   |   |   |   |   |   |   |   |   |   |   23 <= 0.882455
|   |   |   |   |   |   |   |   |   |   |   |   |   |   |   |   |   |   |   |   |   |   |   |   |   42 <= 0.197368
|   |   |   |   |   |   |   |   |   |   |   |   |   |   |   |   |   |   |   |   |   |   |   |   |   |   19 <= 0.190476
|   |   |   |   |   |   |   |   |   |   |   |   |   |   |   |   |   |   |   |   |   |   |   |   |   |   |   41 <= 0.086774
|   |   |   |   |   |   |   |   |   |   |   |   |   |   |   |   |   |   |   |   |   |   |   |   |   |   |   |   45 <= 0.284483
|   |   |   |   |   |   |   |   |   |   |   |   |   |   |   |   |   |   |   |   |   |   |   |   |   |   |   |   |   21 <= 0.283176: NONE (25.0/2.0)
|   |   |   |   |   |   |   |   |   |   |   |   |   |   |   |   |   |   |   |   |   |   |   |   |   |   |   |   |   21 > 0.283176
|   |   |   |   |   |   |   |   |   |   |   |   |   |   |   |   |   |   |   |   |   |   |   |   |   |   |   |   |   |   45 <= 0.244898
|   |   |   |   |   |   |   |   |   |   |   |   |   |   |   |   |   |   |   |   |   |   |   |   |   |   |   |   |   |   |   18 <= 0.181818
|   |   |   |   |   |   |   |   |   |   |   |   |   |   |   |   |   |   |   |   |   |   |   |   |   |   |   |   |   |   |   |   24 <= 0.600592: LOW (11.0/3.0)
|   |   |   |   |   |   |   |   |   |   |   |   |   |   |   |   |   |   |   |   |   |   |   |   |   |   |   |   |   |   |   |   24 > 0.600592
|   |   |   |   |   |   |   |   |   |   |   |   |   |   |   |   |   |   |   |   |   |   |   |   |   |   |   |   |   |   |   |   |   17 <= 0.166667
|   |   |   |   |   |   |   |   |   |   |   |   |   |   |   |   |   |   |   |   |   |   |   |   |   |   |   |   |   |   |   |   |   |   42 <= 0.006329: LOW (7.0/2.0)
|   |   |   |   |   |   |   |   |   |   |   |   |   |   |   |   |   |   |   |   |   |   |   |   |   |   |   |   |   |   |   |   |   |   42 > 0.006329: NONE (12.0/3.0)
|   |   |   |   |   |   |   |   |   |   |   |   |   |   |   |   |   |   |   |   |   |   |   |   |   |   |   |   |   |   |   |   |   17 > 0.166667: NONE (7.0/1.0)
|   |   |   |   |   |   |   |   |   |   |   |   |   |   |   |   |   |   |   |   |   |   |   |   |   |   |   |   |   |   |   18 > 0.181818: NONE (27.0/6.0)
|   |   |   |   |   |   |   |   |   |   |   |   |   |   |   |   |   |   |   |   |   |   |   |   |   |   |   |   |   |   45 > 0.244898: HIGH (3.0/1.0)
|   |   |   |   |   |   |   |   |   |   |   |   |   |   |   |   |   |   |   |   |   |   |   |   |   |   |   |   45 > 0.284483: LOW (4.0)
|   |   |   |   |   |   |   |   |   |   |   |   |   |   |   |   |   |   |   |   |   |   |   |   |   |   |   41 > 0.086774
|   |   |   |   |   |   |   |   |   |   |   |   |   |   |   |   |   |   |   |   |   |   |   |   |   |   |   |   45 <= 0.177686: LOW (7.0)
|   |   |   |   |   |   |   |   |   |   |   |   |   |   |   |   |   |   |   |   |   |   |   |   |   |   |   |   45 > 0.177686: NONE (2.0/1.0)
|   |   |   |   |   |   |   |   |   |   |   |   |   |   |   |   |   |   |   |   |   |   |   |   |   |   19 > 0.190476: NONE (40.0/6.0)
|   |   |   |   |   |   |   |   |   |   |   |   |   |   |   |   |   |   |   |   |   |   |   |   |   42 > 0.197368: NONE (24.0/1.0)
|   |   |   |   |   |   |   |   |   |   |   |   |   |   |   |   |   |   |   |   |   |   |   |   23 > 0.882455: NONE (33.0)
|   |   |   |   |   |   |   |   |   |   |   |   |   |   |   |   |   |   |   |   |   |   18 > 0.766667
|   |   |   |   |   |   |   |   |   |   |   |   |   |   |   |   |   |   |   |   |   |   |   42 <= 0.067308
|   |   |   |   |   |   |   |   |   |   |   |   |   |   |   |   |   |   |   |   |   |   |   |   11 <= 0.131081: HIGH (3.0/1.0)
|   |   |   |   |   |   |   |   |   |   |   |   |   |   |   |   |   |   |   |   |   |   |   |   11 > 0.131081: NONE (4.0)
|   |   |   |   |   |   |   |   |   |   |   |   |   |   |   |   |   |   |   |   |   |   |   42 > 0.067308: LOW (8.0/1.0)
|   |   |   |   |   |   |   |   |   |   |   |   |   |   |   |   |   |   |   |   |   2 > 0.01676
|   |   |   |   |   |   |   |   |   |   |   |   |   |   |   |   |   |   |   |   |   |   2 <= 0.050279: HIGH (2.0)
|   |   |   |   |   |   |   |   |   |   |   |   |   |   |   |   |   |   |   |   |   |   2 > 0.050279
|   |   |   |   |   |   |   |   |   |   |   |   |   |   |   |   |   |   |   |   |   |   |   30 <= 0.163701
|   |   |   |   |   |   |   |   |   |   |   |   |   |   |   |   |   |   |   |   |   |   |   |   2 <= 0.076923: LOW (4.0)
|   |   |   |   |   |   |   |   |   |   |   |   |   |   |   |   |   |   |   |   |   |   |   |   2 > 0.076923
|   |   |   |   |   |   |   |   |   |   |   |   |   |   |   |   |   |   |   |   |   |   |   |   |   24 <= 0.650999
|   |   |   |   |   |   |   |   |   |   |   |   |   |   |   |   |   |   |   |   |   |   |   |   |   |   43 <= 0.219269: LOW (3.0)
|   |   |   |   |   |   |   |   |   |   |   |   |   |   |   |   |   |   |   |   |   |   |   |   |   |   43 > 0.219269: NONE (2.0)
|   |   |   |   |   |   |   |   |   |   |   |   |   |   |   |   |   |   |   |   |   |   |   |   |   24 > 0.650999: NONE (6.0)
|   |   |   |   |   |   |   |   |   |   |   |   |   |   |   |   |   |   |   |   |   |   |   30 > 0.163701
|   |   |   |   |   |   |   |   |   |   |   |   |   |   |   |   |   |   |   |   |   |   |   |   19 <= 0.190476: HIGH (3.0/1.0)
|   |   |   |   |   |   |   |   |   |   |   |   |   |   |   |   |   |   |   |   |   |   |   |   19 > 0.190476: NONE (3.0)
|   |   |   |   |   |   |   |   |   |   |   |   |   |   |   |   |   |   |   |   19 > 0.225806
|   |   |   |   |   |   |   |   |   |   |   |   |   |   |   |   |   |   |   |   |   39 <= 0.325885
|   |   |   |   |   |   |   |   |   |   |   |   |   |   |   |   |   |   |   |   |   |   17 <= 0.606061
|   |   |   |   |   |   |   |   |   |   |   |   |   |   |   |   |   |   |   |   |   |   |   21 <= 0.245123: NONE (2.0)
|   |   |   |   |   |   |   |   |   |   |   |   |   |   |   |   |   |   |   |   |   |   |   21 > 0.245123: LOW (10.0)
|   |   |   |   |   |   |   |   |   |   |   |   |   |   |   |   |   |   |   |   |   |   17 > 0.606061: NONE (2.0)
|   |   |   |   |   |   |   |   |   |   |   |   |   |   |   |   |   |   |   |   |   39 > 0.325885
|   |   |   |   |   |   |   |   |   |   |   |   |   |   |   |   |   |   |   |   |   |   31 <= 0.599517
|   |   |   |   |   |   |   |   |   |   |   |   |   |   |   |   |   |   |   |   |   |   |   3 <= 0.4
|   |   |   |   |   |   |   |   |   |   |   |   |   |   |   |   |   |   |   |   |   |   |   |   37 <= 0.350594: NONE (44.0/3.0)
|   |   |   |   |   |   |   |   |   |   |   |   |   |   |   |   |   |   |   |   |   |   |   |   37 > 0.350594
|   |   |   |   |   |   |   |   |   |   |   |   |   |   |   |   |   |   |   |   |   |   |   |   |   22 <= 0.41624
|   |   |   |   |   |   |   |   |   |   |   |   |   |   |   |   |   |   |   |   |   |   |   |   |   |   45 <= 0.589744
|   |   |   |   |   |   |   |   |   |   |   |   |   |   |   |   |   |   |   |   |   |   |   |   |   |   |   40 <= 0.385604
|   |   |   |   |   |   |   |   |   |   |   |   |   |   |   |   |   |   |   |   |   |   |   |   |   |   |   |   44 <= 0.25
|   |   |   |   |   |   |   |   |   |   |   |   |   |   |   |   |   |   |   |   |   |   |   |   |   |   |   |   |   1 <= 0.175889: NONE (2.0)
|   |   |   |   |   |   |   |   |   |   |   |   |   |   |   |   |   |   |   |   |   |   |   |   |   |   |   |   |   1 > 0.175889: LOW (2.0)
|   |   |   |   |   |   |   |   |   |   |   |   |   |   |   |   |   |   |   |   |   |   |   |   |   |   |   |   44 > 0.25: NONE (14.0/1.0)
|   |   |   |   |   |   |   |   |   |   |   |   |   |   |   |   |   |   |   |   |   |   |   |   |   |   |   40 > 0.385604: LOW (10.0/1.0)
|   |   |   |   |   |   |   |   |   |   |   |   |   |   |   |   |   |   |   |   |   |   |   |   |   |   45 > 0.589744
|   |   |   |   |   |   |   |   |   |   |   |   |   |   |   |   |   |   |   |   |   |   |   |   |   |   |   21 <= 0.604342: LOW (3.0)
|   |   |   |   |   |   |   |   |   |   |   |   |   |   |   |   |   |   |   |   |   |   |   |   |   |   |   21 > 0.604342: HIGH (2.0)
|   |   |   |   |   |   |   |   |   |   |   |   |   |   |   |   |   |   |   |   |   |   |   |   |   22 > 0.41624
|   |   |   |   |   |   |   |   |   |   |   |   |   |   |   |   |   |   |   |   |   |   |   |   |   |   25 <= 0.052309
|   |   |   |   |   |   |   |   |   |   |   |   |   |   |   |   |   |   |   |   |   |   |   |   |   |   |   13 <= 0.147197
|   |   |   |   |   |   |   |   |   |   |   |   |   |   |   |   |   |   |   |   |   |   |   |   |   |   |   |   19 <= 0.588235
|   |   |   |   |   |   |   |   |   |   |   |   |   |   |   |   |   |   |   |   |   |   |   |   |   |   |   |   |   16 <= 0.070482
|   |   |   |   |   |   |   |   |   |   |   |   |   |   |   |   |   |   |   |   |   |   |   |   |   |   |   |   |   |   18 <= 0.034884
|   |   |   |   |   |   |   |   |   |   |   |   |   |   |   |   |   |   |   |   |   |   |   |   |   |   |   |   |   |   |   11 <= 0.022494: NONE (3.0)
|   |   |   |   |   |   |   |   |   |   |   |   |   |   |   |   |   |   |   |   |   |   |   |   |   |   |   |   |   |   |   11 > 0.022494: LOW (7.0)
|   |   |   |   |   |   |   |   |   |   |   |   |   |   |   |   |   |   |   |   |   |   |   |   |   |   |   |   |   |   18 > 0.034884
|   |   |   |   |   |   |   |   |   |   |   |   |   |   |   |   |   |   |   |   |   |   |   |   |   |   |   |   |   |   |   43 <= 0.5625
|   |   |   |   |   |   |   |   |   |   |   |   |   |   |   |   |   |   |   |   |   |   |   |   |   |   |   |   |   |   |   |   17 <= 0.878788: NONE (28.0/2.0)
|   |   |   |   |   |   |   |   |   |   |   |   |   |   |   |   |   |   |   |   |   |   |   |   |   |   |   |   |   |   |   |   17 > 0.878788: LOW (2.0)
|   |   |   |   |   |   |   |   |   |   |   |   |   |   |   |   |   |   |   |   |   |   |   |   |   |   |   |   |   |   |   43 > 0.5625: LOW (2.0)
|   |   |   |   |   |   |   |   |   |   |   |   |   |   |   |   |   |   |   |   |   |   |   |   |   |   |   |   |   16 > 0.070482: NONE (65.0/5.0)
|   |   |   |   |   |   |   |   |   |   |   |   |   |   |   |   |   |   |   |   |   |   |   |   |   |   |   |   19 > 0.588235
|   |   |   |   |   |   |   |   |   |   |   |   |   |   |   |   |   |   |   |   |   |   |   |   |   |   |   |   |   24 <= 0.547031: LOW (5.0)
|   |   |   |   |   |   |   |   |   |   |   |   |   |   |   |   |   |   |   |   |   |   |   |   |   |   |   |   |   24 > 0.547031
|   |   |   |   |   |   |   |   |   |   |   |   |   |   |   |   |   |   |   |   |   |   |   |   |   |   |   |   |   |   19 <= 0.608696: LOW (2.0)
|   |   |   |   |   |   |   |   |   |   |   |   |   |   |   |   |   |   |   |   |   |   |   |   |   |   |   |   |   |   19 > 0.608696: NONE (13.0/2.0)
|   |   |   |   |   |   |   |   |   |   |   |   |   |   |   |   |   |   |   |   |   |   |   |   |   |   |   13 > 0.147197: LOW (5.0/1.0)
|   |   |   |   |   |   |   |   |   |   |   |   |   |   |   |   |   |   |   |   |   |   |   |   |   |   25 > 0.052309: NONE (6.0)
|   |   |   |   |   |   |   |   |   |   |   |   |   |   |   |   |   |   |   |   |   |   |   3 > 0.4: NONE (12.0)
|   |   |   |   |   |   |   |   |   |   |   |   |   |   |   |   |   |   |   |   |   |   31 > 0.599517
|   |   |   |   |   |   |   |   |   |   |   |   |   |   |   |   |   |   |   |   |   |   |   31 <= 0.82552: LOW (4.0)
|   |   |   |   |   |   |   |   |   |   |   |   |   |   |   |   |   |   |   |   |   |   |   31 > 0.82552: NONE (4.0/1.0)
|   |   |   |   |   |   |   |   |   |   |   |   |   |   |   |   |   |   2 > 0.181818
|   |   |   |   |   |   |   |   |   |   |   |   |   |   |   |   |   |   |   12 <= 0.085494: LOW (9.0)
|   |   |   |   |   |   |   |   |   |   |   |   |   |   |   |   |   |   |   12 > 0.085494
|   |   |   |   |   |   |   |   |   |   |   |   |   |   |   |   |   |   |   |   26 <= 0.127535: NONE (10.0/1.0)
|   |   |   |   |   |   |   |   |   |   |   |   |   |   |   |   |   |   |   |   26 > 0.127535: LOW (5.0/1.0)
|   |   |   |   |   |   |   |   |   |   |   |   |   |   |   |   |   12 > 0.201376
|   |   |   |   |   |   |   |   |   |   |   |   |   |   |   |   |   |   19 <= 0.782609
|   |   |   |   |   |   |   |   |   |   |   |   |   |   |   |   |   |   |   12 <= 0.707347: NONE (51.0/1.0)
|   |   |   |   |   |   |   |   |   |   |   |   |   |   |   |   |   |   |   12 > 0.707347: LOW (2.0)
|   |   |   |   |   |   |   |   |   |   |   |   |   |   |   |   |   |   19 > 0.782609: LOW (2.0)
|   |   |   |   |   |   |   |   |   |   |   |   |   |   |   |   44 > 0.375
|   |   |   |   |   |   |   |   |   |   |   |   |   |   |   |   |   5 <= 0.050697
|   |   |   |   |   |   |   |   |   |   |   |   |   |   |   |   |   |   45 <= 0.362963
|   |   |   |   |   |   |   |   |   |   |   |   |   |   |   |   |   |   |   42 <= 0.581395
|   |   |   |   |   |   |   |   |   |   |   |   |   |   |   |   |   |   |   |   11 <= 0.039727: LOW (17.0/1.0)
|   |   |   |   |   |   |   |   |   |   |   |   |   |   |   |   |   |   |   |   11 > 0.039727
|   |   |   |   |   |   |   |   |   |   |   |   |   |   |   |   |   |   |   |   |   41 <= 0.005536: LOW (5.0/1.0)
|   |   |   |   |   |   |   |   |   |   |   |   |   |   |   |   |   |   |   |   |   41 > 0.005536: NONE (4.0)
|   |   |   |   |   |   |   |   |   |   |   |   |   |   |   |   |   |   |   42 > 0.581395: NONE (3.0)
|   |   |   |   |   |   |   |   |   |   |   |   |   |   |   |   |   |   45 > 0.362963
|   |   |   |   |   |   |   |   |   |   |   |   |   |   |   |   |   |   |   1 <= 0.026005: LOW (2.0/1.0)
|   |   |   |   |   |   |   |   |   |   |   |   |   |   |   |   |   |   |   1 > 0.026005: NONE (8.0/1.0)
|   |   |   |   |   |   |   |   |   |   |   |   |   |   |   |   |   5 > 0.050697
|   |   |   |   |   |   |   |   |   |   |   |   |   |   |   |   |   |   30 <= 0.26997
|   |   |   |   |   |   |   |   |   |   |   |   |   |   |   |   |   |   |   32 <= 0.121551
|   |   |   |   |   |   |   |   |   |   |   |   |   |   |   |   |   |   |   |   37 <= 0.599385
|   |   |   |   |   |   |   |   |   |   |   |   |   |   |   |   |   |   |   |   |   23 <= 0.632798
|   |   |   |   |   |   |   |   |   |   |   |   |   |   |   |   |   |   |   |   |   |   1 <= 0.145631
|   |   |   |   |   |   |   |   |   |   |   |   |   |   |   |   |   |   |   |   |   |   |   42 <= 0.011645: NONE (5.0)
|   |   |   |   |   |   |   |   |   |   |   |   |   |   |   |   |   |   |   |   |   |   |   42 > 0.011645: HIGH (9.0/1.0)
|   |   |   |   |   |   |   |   |   |   |   |   |   |   |   |   |   |   |   |   |   |   1 > 0.145631: NONE (23.0)
|   |   |   |   |   |   |   |   |   |   |   |   |   |   |   |   |   |   |   |   |   23 > 0.632798
|   |   |   |   |   |   |   |   |   |   |   |   |   |   |   |   |   |   |   |   |   |   24 <= 0.706498
|   |   |   |   |   |   |   |   |   |   |   |   |   |   |   |   |   |   |   |   |   |   |   18 <= 0.285714
|   |   |   |   |   |   |   |   |   |   |   |   |   |   |   |   |   |   |   |   |   |   |   |   18 <= 0.138889
|   |   |   |   |   |   |   |   |   |   |   |   |   |   |   |   |   |   |   |   |   |   |   |   |   42 <= 0.054795
|   |   |   |   |   |   |   |   |   |   |   |   |   |   |   |   |   |   |   |   |   |   |   |   |   |   22 <= 0.615547
|   |   |   |   |   |   |   |   |   |   |   |   |   |   |   |   |   |   |   |   |   |   |   |   |   |   |   1 <= 0.394737: NONE (5.0)
|   |   |   |   |   |   |   |   |   |   |   |   |   |   |   |   |   |   |   |   |   |   |   |   |   |   |   1 > 0.394737: HIGH (3.0/1.0)
|   |   |   |   |   |   |   |   |   |   |   |   |   |   |   |   |   |   |   |   |   |   |   |   |   |   22 > 0.615547: HIGH (4.0/1.0)
|   |   |   |   |   |   |   |   |   |   |   |   |   |   |   |   |   |   |   |   |   |   |   |   |   42 > 0.054795: LOW (3.0/1.0)
|   |   |   |   |   |   |   |   |   |   |   |   |   |   |   |   |   |   |   |   |   |   |   |   18 > 0.138889: HIGH (2.0)
|   |   |   |   |   |   |   |   |   |   |   |   |   |   |   |   |   |   |   |   |   |   |   18 > 0.285714: LOW (4.0/1.0)
|   |   |   |   |   |   |   |   |   |   |   |   |   |   |   |   |   |   |   |   |   |   24 > 0.706498: NONE (4.0)
|   |   |   |   |   |   |   |   |   |   |   |   |   |   |   |   |   |   |   |   37 > 0.599385: NONE (18.0)
|   |   |   |   |   |   |   |   |   |   |   |   |   |   |   |   |   |   |   32 > 0.121551: HIGH (3.0)
|   |   |   |   |   |   |   |   |   |   |   |   |   |   |   |   |   |   30 > 0.26997: LOW (3.0/1.0)
|   |   |   |   |   |   |   |   |   |   |   |   |   |   |   44 > 0.411765
|   |   |   |   |   |   |   |   |   |   |   |   |   |   |   |   45 <= 0.136364
|   |   |   |   |   |   |   |   |   |   |   |   |   |   |   |   |   26 <= 0.027507
|   |   |   |   |   |   |   |   |   |   |   |   |   |   |   |   |   |   15 <= 0.037875: LOW (6.0)
|   |   |   |   |   |   |   |   |   |   |   |   |   |   |   |   |   |   15 > 0.037875
|   |   |   |   |   |   |   |   |   |   |   |   |   |   |   |   |   |   |   42 <= 0.095238
|   |   |   |   |   |   |   |   |   |   |   |   |   |   |   |   |   |   |   |   24 <= 0.305904: LOW (7.0)
|   |   |   |   |   |   |   |   |   |   |   |   |   |   |   |   |   |   |   |   24 > 0.305904
|   |   |   |   |   |   |   |   |   |   |   |   |   |   |   |   |   |   |   |   |   21 <= 0.514274: NONE (8.0)
|   |   |   |   |   |   |   |   |   |   |   |   |   |   |   |   |   |   |   |   |   21 > 0.514274
|   |   |   |   |   |   |   |   |   |   |   |   |   |   |   |   |   |   |   |   |   |   42 <= 0.00271: NONE (3.0/1.0)
|   |   |   |   |   |   |   |   |   |   |   |   |   |   |   |   |   |   |   |   |   |   42 > 0.00271: LOW (8.0)
|   |   |   |   |   |   |   |   |   |   |   |   |   |   |   |   |   |   |   42 > 0.095238: NONE (10.0/1.0)
|   |   |   |   |   |   |   |   |   |   |   |   |   |   |   |   |   26 > 0.027507: NONE (3.0)
|   |   |   |   |   |   |   |   |   |   |   |   |   |   |   |   45 > 0.136364
|   |   |   |   |   |   |   |   |   |   |   |   |   |   |   |   |   44 <= 0.454545: NONE (104.0/9.0)
|   |   |   |   |   |   |   |   |   |   |   |   |   |   |   |   |   44 > 0.454545
|   |   |   |   |   |   |   |   |   |   |   |   |   |   |   |   |   |   29 <= 0.35097
|   |   |   |   |   |   |   |   |   |   |   |   |   |   |   |   |   |   |   23 <= 0.732798
|   |   |   |   |   |   |   |   |   |   |   |   |   |   |   |   |   |   |   |   24 <= 0.147064
|   |   |   |   |   |   |   |   |   |   |   |   |   |   |   |   |   |   |   |   |   27 <= 0.069341
|   |   |   |   |   |   |   |   |   |   |   |   |   |   |   |   |   |   |   |   |   |   39 <= 0.53697: NONE (19.0/1.0)
|   |   |   |   |   |   |   |   |   |   |   |   |   |   |   |   |   |   |   |   |   |   39 > 0.53697
|   |   |   |   |   |   |   |   |   |   |   |   |   |   |   |   |   |   |   |   |   |   |   45 <= 0.276119: HIGH (4.0)
|   |   |   |   |   |   |   |   |   |   |   |   |   |   |   |   |   |   |   |   |   |   |   45 > 0.276119: NONE (3.0)
|   |   |   |   |   |   |   |   |   |   |   |   |   |   |   |   |   |   |   |   |   27 > 0.069341: HIGH (2.0)
|   |   |   |   |   |   |   |   |   |   |   |   |   |   |   |   |   |   |   |   24 > 0.147064
|   |   |   |   |   |   |   |   |   |   |   |   |   |   |   |   |   |   |   |   |   43 <= 0.094595
|   |   |   |   |   |   |   |   |   |   |   |   |   |   |   |   |   |   |   |   |   |   44 <= 0.6
|   |   |   |   |   |   |   |   |   |   |   |   |   |   |   |   |   |   |   |   |   |   |   44 <= 0.583333
|   |   |   |   |   |   |   |   |   |   |   |   |   |   |   |   |   |   |   |   |   |   |   |   42 <= 0.013889: NONE (82.0/5.0)
|   |   |   |   |   |   |   |   |   |   |   |   |   |   |   |   |   |   |   |   |   |   |   |   42 > 0.013889
|   |   |   |   |   |   |   |   |   |   |   |   |   |   |   |   |   |   |   |   |   |   |   |   |   23 <= 0.712401
|   |   |   |   |   |   |   |   |   |   |   |   |   |   |   |   |   |   |   |   |   |   |   |   |   |   18 <= 0.653846
|   |   |   |   |   |   |   |   |   |   |   |   |   |   |   |   |   |   |   |   |   |   |   |   |   |   |   39 <= 0.282449: LOW (2.0)
|   |   |   |   |   |   |   |   |   |   |   |   |   |   |   |   |   |   |   |   |   |   |   |   |   |   |   39 > 0.282449: NONE (77.0/8.0)
|   |   |   |   |   |   |   |   |   |   |   |   |   |   |   |   |   |   |   |   |   |   |   |   |   |   18 > 0.653846: LOW (2.0)
|   |   |   |   |   |   |   |   |   |   |   |   |   |   |   |   |   |   |   |   |   |   |   |   |   23 > 0.712401: LOW (5.0/1.0)
|   |   |   |   |   |   |   |   |   |   |   |   |   |   |   |   |   |   |   |   |   |   |   44 > 0.583333
|   |   |   |   |   |   |   |   |   |   |   |   |   |   |   |   |   |   |   |   |   |   |   |   38 <= 0.577966
|   |   |   |   |   |   |   |   |   |   |   |   |   |   |   |   |   |   |   |   |   |   |   |   |   16 <= 0.625477: NONE (33.0/1.0)
|   |   |   |   |   |   |   |   |   |   |   |   |   |   |   |   |   |   |   |   |   |   |   |   |   16 > 0.625477
|   |   |   |   |   |   |   |   |   |   |   |   |   |   |   |   |   |   |   |   |   |   |   |   |   |   2 <= 0.034483
|   |   |   |   |   |   |   |   |   |   |   |   |   |   |   |   |   |   |   |   |   |   |   |   |   |   |   42 <= 0.171429: LOW (4.0)
|   |   |   |   |   |   |   |   |   |   |   |   |   |   |   |   |   |   |   |   |   |   |   |   |   |   |   42 > 0.171429: NONE (2.0)
|   |   |   |   |   |   |   |   |   |   |   |   |   |   |   |   |   |   |   |   |   |   |   |   |   |   2 > 0.034483: NONE (2.0/1.0)
|   |   |   |   |   |   |   |   |   |   |   |   |   |   |   |   |   |   |   |   |   |   |   |   38 > 0.577966: LOW (5.0/1.0)
|   |   |   |   |   |   |   |   |   |   |   |   |   |   |   |   |   |   |   |   |   |   44 > 0.6
|   |   |   |   |   |   |   |   |   |   |   |   |   |   |   |   |   |   |   |   |   |   |   44 <= 0.833333: NONE (158.0/24.0)
|   |   |   |   |   |   |   |   |   |   |   |   |   |   |   |   |   |   |   |   |   |   |   44 > 0.833333
|   |   |   |   |   |   |   |   |   |   |   |   |   |   |   |   |   |   |   |   |   |   |   |   44 <= 0.916667
|   |   |   |   |   |   |   |   |   |   |   |   |   |   |   |   |   |   |   |   |   |   |   |   |   45 <= 0.590361: NONE (4.0/1.0)
|   |   |   |   |   |   |   |   |   |   |   |   |   |   |   |   |   |   |   |   |   |   |   |   |   45 > 0.590361: LOW (6.0)
|   |   |   |   |   |   |   |   |   |   |   |   |   |   |   |   |   |   |   |   |   |   |   |   44 > 0.916667
|   |   |   |   |   |   |   |   |   |   |   |   |   |   |   |   |   |   |   |   |   |   |   |   |   19 <= 0.166667: LOW (2.0)
|   |   |   |   |   |   |   |   |   |   |   |   |   |   |   |   |   |   |   |   |   |   |   |   |   19 > 0.166667: NONE (29.0/4.0)
|   |   |   |   |   |   |   |   |   |   |   |   |   |   |   |   |   |   |   |   |   43 > 0.094595
|   |   |   |   |   |   |   |   |   |   |   |   |   |   |   |   |   |   |   |   |   |   43 <= 0.1
|   |   |   |   |   |   |   |   |   |   |   |   |   |   |   |   |   |   |   |   |   |   |   17 <= 0.046763: HIGH (4.0)
|   |   |   |   |   |   |   |   |   |   |   |   |   |   |   |   |   |   |   |   |   |   |   17 > 0.046763: NONE (2.0)
|   |   |   |   |   |   |   |   |   |   |   |   |   |   |   |   |   |   |   |   |   |   43 > 0.1: NONE (106.0/7.0)
|   |   |   |   |   |   |   |   |   |   |   |   |   |   |   |   |   |   |   23 > 0.732798
|   |   |   |   |   |   |   |   |   |   |   |   |   |   |   |   |   |   |   |   18 <= 0.545455
|   |   |   |   |   |   |   |   |   |   |   |   |   |   |   |   |   |   |   |   |   19 <= 0.4
|   |   |   |   |   |   |   |   |   |   |   |   |   |   |   |   |   |   |   |   |   |   38 <= 0.623101: LOW (45.0/13.0)
|   |   |   |   |   |   |   |   |   |   |   |   |   |   |   |   |   |   |   |   |   |   38 > 0.623101
|   |   |   |   |   |   |   |   |   |   |   |   |   |   |   |   |   |   |   |   |   |   |   44 <= 0.777778
|   |   |   |   |   |   |   |   |   |   |   |   |   |   |   |   |   |   |   |   |   |   |   |   38 <= 0.687278: NONE (18.0/1.0)
|   |   |   |   |   |   |   |   |   |   |   |   |   |   |   |   |   |   |   |   |   |   |   |   38 > 0.687278
|   |   |   |   |   |   |   |   |   |   |   |   |   |   |   |   |   |   |   |   |   |   |   |   |   2 <= 0.027778
|   |   |   |   |   |   |   |   |   |   |   |   |   |   |   |   |   |   |   |   |   |   |   |   |   |   22 <= 0.894848
|   |   |   |   |   |   |   |   |   |   |   |   |   |   |   |   |   |   |   |   |   |   |   |   |   |   |   43 <= 0.205882
|   |   |   |   |   |   |   |   |   |   |   |   |   |   |   |   |   |   |   |   |   |   |   |   |   |   |   |   44 <= 0.529412
|   |   |   |   |   |   |   |   |   |   |   |   |   |   |   |   |   |   |   |   |   |   |   |   |   |   |   |   |   39 <= 0.819708: LOW (8.0)
|   |   |   |   |   |   |   |   |   |   |   |   |   |   |   |   |   |   |   |   |   |   |   |   |   |   |   |   |   39 > 0.819708
|   |   |   |   |   |   |   |   |   |   |   |   |   |   |   |   |   |   |   |   |   |   |   |   |   |   |   |   |   |   11 <= 0.492501: NONE (5.0)
|   |   |   |   |   |   |   |   |   |   |   |   |   |   |   |   |   |   |   |   |   |   |   |   |   |   |   |   |   |   11 > 0.492501: LOW (4.0)
|   |   |   |   |   |   |   |   |   |   |   |   |   |   |   |   |   |   |   |   |   |   |   |   |   |   |   |   44 > 0.529412
|   |   |   |   |   |   |   |   |   |   |   |   |   |   |   |   |   |   |   |   |   |   |   |   |   |   |   |   |   11 <= 0.078364: LOW (4.0)
|   |   |   |   |   |   |   |   |   |   |   |   |   |   |   |   |   |   |   |   |   |   |   |   |   |   |   |   |   11 > 0.078364
|   |   |   |   |   |   |   |   |   |   |   |   |   |   |   |   |   |   |   |   |   |   |   |   |   |   |   |   |   |   16 <= 0.191031
|   |   |   |   |   |   |   |   |   |   |   |   |   |   |   |   |   |   |   |   |   |   |   |   |   |   |   |   |   |   |   1 <= 0.152466: NONE (4.0)
|   |   |   |   |   |   |   |   |   |   |   |   |   |   |   |   |   |   |   |   |   |   |   |   |   |   |   |   |   |   |   1 > 0.152466: LOW (3.0)
|   |   |   |   |   |   |   |   |   |   |   |   |   |   |   |   |   |   |   |   |   |   |   |   |   |   |   |   |   |   16 > 0.191031: NONE (11.0)
|   |   |   |   |   |   |   |   |   |   |   |   |   |   |   |   |   |   |   |   |   |   |   |   |   |   |   43 > 0.205882
|   |   |   |   |   |   |   |   |   |   |   |   |   |   |   |   |   |   |   |   |   |   |   |   |   |   |   |   18 <= 0.162791: HIGH (2.0)
|   |   |   |   |   |   |   |   |   |   |   |   |   |   |   |   |   |   |   |   |   |   |   |   |   |   |   |   18 > 0.162791
|   |   |   |   |   |   |   |   |   |   |   |   |   |   |   |   |   |   |   |   |   |   |   |   |   |   |   |   |   17 <= 0.166667: LOW (2.0)
|   |   |   |   |   |   |   |   |   |   |   |   |   |   |   |   |   |   |   |   |   |   |   |   |   |   |   |   |   17 > 0.166667: NONE (6.0)
|   |   |   |   |   |   |   |   |   |   |   |   |   |   |   |   |   |   |   |   |   |   |   |   |   |   22 > 0.894848
|   |   |   |   |   |   |   |   |   |   |   |   |   |   |   |   |   |   |   |   |   |   |   |   |   |   |   18 <= 0: HIGH (2.0)
|   |   |   |   |   |   |   |   |   |   |   |   |   |   |   |   |   |   |   |   |   |   |   |   |   |   |   18 > 0: NONE (8.0)
|   |   |   |   |   |   |   |   |   |   |   |   |   |   |   |   |   |   |   |   |   |   |   |   |   2 > 0.027778: NONE (6.0)
|   |   |   |   |   |   |   |   |   |   |   |   |   |   |   |   |   |   |   |   |   |   |   44 > 0.777778: LOW (3.0/1.0)
|   |   |   |   |   |   |   |   |   |   |   |   |   |   |   |   |   |   |   |   |   19 > 0.4
|   |   |   |   |   |   |   |   |   |   |   |   |   |   |   |   |   |   |   |   |   |   44 <= 0.6
|   |   |   |   |   |   |   |   |   |   |   |   |   |   |   |   |   |   |   |   |   |   |   44 <= 0.583333: NONE (57.0/9.0)
|   |   |   |   |   |   |   |   |   |   |   |   |   |   |   |   |   |   |   |   |   |   |   44 > 0.583333
|   |   |   |   |   |   |   |   |   |   |   |   |   |   |   |   |   |   |   |   |   |   |   |   42 <= 0.025641: NONE (7.0/2.0)
|   |   |   |   |   |   |   |   |   |   |   |   |   |   |   |   |   |   |   |   |   |   |   |   42 > 0.025641: LOW (9.0)
|   |   |   |   |   |   |   |   |   |   |   |   |   |   |   |   |   |   |   |   |   |   44 > 0.6: NONE (104.0/20.0)
|   |   |   |   |   |   |   |   |   |   |   |   |   |   |   |   |   |   |   |   18 > 0.545455
|   |   |   |   |   |   |   |   |   |   |   |   |   |   |   |   |   |   |   |   |   27 <= 0.074194: NONE (53.0/4.0)
|   |   |   |   |   |   |   |   |   |   |   |   |   |   |   |   |   |   |   |   |   27 > 0.074194: LOW (2.0/1.0)
|   |   |   |   |   |   |   |   |   |   |   |   |   |   |   |   |   |   29 > 0.35097
|   |   |   |   |   |   |   |   |   |   |   |   |   |   |   |   |   |   |   13 <= 0.284199
|   |   |   |   |   |   |   |   |   |   |   |   |   |   |   |   |   |   |   |   24 <= 0.349382: LOW (11.0)
|   |   |   |   |   |   |   |   |   |   |   |   |   |   |   |   |   |   |   |   24 > 0.349382: NONE (3.0)
|   |   |   |   |   |   |   |   |   |   |   |   |   |   |   |   |   |   |   13 > 0.284199
|   |   |   |   |   |   |   |   |   |   |   |   |   |   |   |   |   |   |   |   41 <= 0.001859
|   |   |   |   |   |   |   |   |   |   |   |   |   |   |   |   |   |   |   |   |   22 <= 0.8785: NONE (25.0)
|   |   |   |   |   |   |   |   |   |   |   |   |   |   |   |   |   |   |   |   |   22 > 0.8785: LOW (2.0/1.0)
|   |   |   |   |   |   |   |   |   |   |   |   |   |   |   |   |   |   |   |   41 > 0.001859
|   |   |   |   |   |   |   |   |   |   |   |   |   |   |   |   |   |   |   |   |   41 <= 0.061114
|   |   |   |   |   |   |   |   |   |   |   |   |   |   |   |   |   |   |   |   |   |   27 <= 0.427236
|   |   |   |   |   |   |   |   |   |   |   |   |   |   |   |   |   |   |   |   |   |   |   3 <= 0.4: LOW (11.0/1.0)
|   |   |   |   |   |   |   |   |   |   |   |   |   |   |   |   |   |   |   |   |   |   |   3 > 0.4
|   |   |   |   |   |   |   |   |   |   |   |   |   |   |   |   |   |   |   |   |   |   |   |   45 <= 0.558333
|   |   |   |   |   |   |   |   |   |   |   |   |   |   |   |   |   |   |   |   |   |   |   |   |   1 <= 0.061462: LOW (7.0)
|   |   |   |   |   |   |   |   |   |   |   |   |   |   |   |   |   |   |   |   |   |   |   |   |   1 > 0.061462
|   |   |   |   |   |   |   |   |   |   |   |   |   |   |   |   |   |   |   |   |   |   |   |   |   |   29 <= 0.651859: NONE (4.0)
|   |   |   |   |   |   |   |   |   |   |   |   |   |   |   |   |   |   |   |   |   |   |   |   |   |   29 > 0.651859: LOW (6.0/1.0)
|   |   |   |   |   |   |   |   |   |   |   |   |   |   |   |   |   |   |   |   |   |   |   |   45 > 0.558333: NONE (5.0)
|   |   |   |   |   |   |   |   |   |   |   |   |   |   |   |   |   |   |   |   |   |   27 > 0.427236: NONE (6.0/1.0)
|   |   |   |   |   |   |   |   |   |   |   |   |   |   |   |   |   |   |   |   |   41 > 0.061114: NONE (15.0/1.0)
|   |   |   |   |   |   |   |   |   |   |   |   |   |   45 > 0.816327
|   |   |   |   |   |   |   |   |   |   |   |   |   |   |   18 <= 0.529412
|   |   |   |   |   |   |   |   |   |   |   |   |   |   |   |   44 <= 0.411765
|   |   |   |   |   |   |   |   |   |   |   |   |   |   |   |   |   18 <= 0.086957
|   |   |   |   |   |   |   |   |   |   |   |   |   |   |   |   |   |   44 <= 0.363636: NONE (4.0)
|   |   |   |   |   |   |   |   |   |   |   |   |   |   |   |   |   |   44 > 0.363636
|   |   |   |   |   |   |   |   |   |   |   |   |   |   |   |   |   |   |   22 <= 0.502235: HIGH (3.0)
|   |   |   |   |   |   |   |   |   |   |   |   |   |   |   |   |   |   |   22 > 0.502235: NONE (4.0)
|   |   |   |   |   |   |   |   |   |   |   |   |   |   |   |   |   18 > 0.086957: NONE (2.0)
|   |   |   |   |   |   |   |   |   |   |   |   |   |   |   |   44 > 0.411765
|   |   |   |   |   |   |   |   |   |   |   |   |   |   |   |   |   21 <= 0.590068
|   |   |   |   |   |   |   |   |   |   |   |   |   |   |   |   |   |   37 <= 0.531358
|   |   |   |   |   |   |   |   |   |   |   |   |   |   |   |   |   |   |   19 <= 0.785714: NONE (25.0/1.0)
|   |   |   |   |   |   |   |   |   |   |   |   |   |   |   |   |   |   |   19 > 0.785714
|   |   |   |   |   |   |   |   |   |   |   |   |   |   |   |   |   |   |   |   38 <= 0.276942: LOW (3.0/1.0)
|   |   |   |   |   |   |   |   |   |   |   |   |   |   |   |   |   |   |   |   38 > 0.276942
|   |   |   |   |   |   |   |   |   |   |   |   |   |   |   |   |   |   |   |   |   22 <= 0.656261: NONE (16.0)
|   |   |   |   |   |   |   |   |   |   |   |   |   |   |   |   |   |   |   |   |   22 > 0.656261
|   |   |   |   |   |   |   |   |   |   |   |   |   |   |   |   |   |   |   |   |   |   21 <= 0.429109: LOW (3.0)
|   |   |   |   |   |   |   |   |   |   |   |   |   |   |   |   |   |   |   |   |   |   21 > 0.429109: NONE (2.0)
|   |   |   |   |   |   |   |   |   |   |   |   |   |   |   |   |   |   37 > 0.531358
|   |   |   |   |   |   |   |   |   |   |   |   |   |   |   |   |   |   |   22 <= 0.275057: NONE (2.0)
|   |   |   |   |   |   |   |   |   |   |   |   |   |   |   |   |   |   |   22 > 0.275057: LOW (4.0)
|   |   |   |   |   |   |   |   |   |   |   |   |   |   |   |   |   21 > 0.590068: NONE (32.0)
|   |   |   |   |   |   |   |   |   |   |   |   |   |   |   18 > 0.529412
|   |   |   |   |   |   |   |   |   |   |   |   |   |   |   |   3 <= 0.285714
|   |   |   |   |   |   |   |   |   |   |   |   |   |   |   |   |   41 <= 0.054223: HIGH (8.0/1.0)
|   |   |   |   |   |   |   |   |   |   |   |   |   |   |   |   |   41 > 0.054223: NONE (2.0)
|   |   |   |   |   |   |   |   |   |   |   |   |   |   |   |   3 > 0.285714: NONE (4.0)
|   |   |   |   |   |   |   |   |   |   |   |   34 > 0.005953
|   |   |   |   |   |   |   |   |   |   |   |   |   21 <= 0.17377
|   |   |   |   |   |   |   |   |   |   |   |   |   |   16 <= 0.85332: NONE (6.0)
|   |   |   |   |   |   |   |   |   |   |   |   |   |   16 > 0.85332: LOW (4.0/1.0)
|   |   |   |   |   |   |   |   |   |   |   |   |   21 > 0.17377: LOW (17.0/2.0)
|   |   |   |   |   |   |   |   |   |   |   14 > 0.136714
|   |   |   |   |   |   |   |   |   |   |   |   4 <= 0.4: NONE (48.0/2.0)
|   |   |   |   |   |   |   |   |   |   |   |   4 > 0.4
|   |   |   |   |   |   |   |   |   |   |   |   |   40 <= 0.284051: NONE (32.0)
|   |   |   |   |   |   |   |   |   |   |   |   |   40 > 0.284051
|   |   |   |   |   |   |   |   |   |   |   |   |   |   26 <= 0.102629
|   |   |   |   |   |   |   |   |   |   |   |   |   |   |   29 <= 0.765176
|   |   |   |   |   |   |   |   |   |   |   |   |   |   |   |   26 <= 0.01167
|   |   |   |   |   |   |   |   |   |   |   |   |   |   |   |   |   17 <= 0.022222: NONE (20.0/1.0)
|   |   |   |   |   |   |   |   |   |   |   |   |   |   |   |   |   17 > 0.022222
|   |   |   |   |   |   |   |   |   |   |   |   |   |   |   |   |   |   43 <= 0.45283
|   |   |   |   |   |   |   |   |   |   |   |   |   |   |   |   |   |   |   35 <= 0.000311
|   |   |   |   |   |   |   |   |   |   |   |   |   |   |   |   |   |   |   |   19 <= 0.481481: LOW (4.0)
|   |   |   |   |   |   |   |   |   |   |   |   |   |   |   |   |   |   |   |   19 > 0.481481
|   |   |   |   |   |   |   |   |   |   |   |   |   |   |   |   |   |   |   |   |   16 <= 0.238088: NONE (4.0)
|   |   |   |   |   |   |   |   |   |   |   |   |   |   |   |   |   |   |   |   |   16 > 0.238088
|   |   |   |   |   |   |   |   |   |   |   |   |   |   |   |   |   |   |   |   |   |   17 <= 0.042254: NONE (2.0)
|   |   |   |   |   |   |   |   |   |   |   |   |   |   |   |   |   |   |   |   |   |   17 > 0.042254: LOW (3.0)
|   |   |   |   |   |   |   |   |   |   |   |   |   |   |   |   |   |   |   35 > 0.000311: NONE (21.0/1.0)
|   |   |   |   |   |   |   |   |   |   |   |   |   |   |   |   |   |   43 > 0.45283: LOW (3.0)
|   |   |   |   |   |   |   |   |   |   |   |   |   |   |   |   26 > 0.01167: LOW (2.0)
|   |   |   |   |   |   |   |   |   |   |   |   |   |   |   29 > 0.765176: LOW (3.0)
|   |   |   |   |   |   |   |   |   |   |   |   |   |   26 > 0.102629: NONE (18.0)
|   |   |   |   |   |   |   |   |   |   27 > 0.475745
|   |   |   |   |   |   |   |   |   |   |   31 <= 0.741023
|   |   |   |   |   |   |   |   |   |   |   |   31 <= 0.335242
|   |   |   |   |   |   |   |   |   |   |   |   |   27 <= 0.532535: LOW (18.0/2.0)
|   |   |   |   |   |   |   |   |   |   |   |   |   27 > 0.532535
|   |   |   |   |   |   |   |   |   |   |   |   |   |   37 <= 0.548123
|   |   |   |   |   |   |   |   |   |   |   |   |   |   |   21 <= 0.444015
|   |   |   |   |   |   |   |   |   |   |   |   |   |   |   |   37 <= 0.368761: LOW (4.0/1.0)
|   |   |   |   |   |   |   |   |   |   |   |   |   |   |   |   37 > 0.368761: NONE (6.0)
|   |   |   |   |   |   |   |   |   |   |   |   |   |   |   21 > 0.444015: LOW (6.0)
|   |   |   |   |   |   |   |   |   |   |   |   |   |   37 > 0.548123: NONE (22.0/2.0)
|   |   |   |   |   |   |   |   |   |   |   |   31 > 0.335242: NONE (24.0)
|   |   |   |   |   |   |   |   |   |   |   31 > 0.741023
|   |   |   |   |   |   |   |   |   |   |   |   2 <= 0.444444: LOW (24.0/2.0)
|   |   |   |   |   |   |   |   |   |   |   |   2 > 0.444444: NONE (2.0)
|   |   |   |   |   |   |   |   |   27 > 0.666457
|   |   |   |   |   |   |   |   |   |   39 <= 0.81137
|   |   |   |   |   |   |   |   |   |   |   29 <= 0.409417
|   |   |   |   |   |   |   |   |   |   |   |   2 <= 0.4: NONE (23.0)
|   |   |   |   |   |   |   |   |   |   |   |   2 > 0.4
|   |   |   |   |   |   |   |   |   |   |   |   |   43 <= 0.176471
|   |   |   |   |   |   |   |   |   |   |   |   |   |   31 <= 0.758556
|   |   |   |   |   |   |   |   |   |   |   |   |   |   |   28 <= 0.670012
|   |   |   |   |   |   |   |   |   |   |   |   |   |   |   |   18 <= 0.030303: LOW (3.0/1.0)
|   |   |   |   |   |   |   |   |   |   |   |   |   |   |   |   18 > 0.030303: NONE (9.0)
|   |   |   |   |   |   |   |   |   |   |   |   |   |   |   28 > 0.670012
|   |   |   |   |   |   |   |   |   |   |   |   |   |   |   |   43 <= 0.046358
|   |   |   |   |   |   |   |   |   |   |   |   |   |   |   |   |   12 <= 0.510326: HIGH (5.0/1.0)
|   |   |   |   |   |   |   |   |   |   |   |   |   |   |   |   |   12 > 0.510326: NONE (17.0/2.0)
|   |   |   |   |   |   |   |   |   |   |   |   |   |   |   |   43 > 0.046358: HIGH (4.0)
|   |   |   |   |   |   |   |   |   |   |   |   |   |   31 > 0.758556: HIGH (2.0)
|   |   |   |   |   |   |   |   |   |   |   |   |   43 > 0.176471: NONE (18.0/1.0)
|   |   |   |   |   |   |   |   |   |   |   29 > 0.409417
|   |   |   |   |   |   |   |   |   |   |   |   44 <= 0.272727
|   |   |   |   |   |   |   |   |   |   |   |   |   31 <= 0.776348: NONE (4.0)
|   |   |   |   |   |   |   |   |   |   |   |   |   31 > 0.776348: LOW (4.0)
|   |   |   |   |   |   |   |   |   |   |   |   44 > 0.272727: NONE (43.0/2.0)
|   |   |   |   |   |   |   |   |   |   39 > 0.81137
|   |   |   |   |   |   |   |   |   |   |   17 <= 0.302326: HIGH (2.0)
|   |   |   |   |   |   |   |   |   |   |   17 > 0.302326
|   |   |   |   |   |   |   |   |   |   |   |   25 <= 0.402509: NONE (2.0)
|   |   |   |   |   |   |   |   |   |   |   |   25 > 0.402509: LOW (4.0)
|   |   |   |   |   |   |   |   33 > 0.676382
|   |   |   |   |   |   |   |   |   4 <= 0.5
|   |   |   |   |   |   |   |   |   |   4 <= 0.166667: LOW (2.0)
|   |   |   |   |   |   |   |   |   |   4 > 0.166667
|   |   |   |   |   |   |   |   |   |   |   16 <= 0.950525
|   |   |   |   |   |   |   |   |   |   |   |   22 <= 0.347031
|   |   |   |   |   |   |   |   |   |   |   |   |   26 <= 0.542579
|   |   |   |   |   |   |   |   |   |   |   |   |   |   17 <= 0.010733
|   |   |   |   |   |   |   |   |   |   |   |   |   |   |   13 <= 0.158502: HIGH (2.0)
|   |   |   |   |   |   |   |   |   |   |   |   |   |   |   13 > 0.158502: NONE (5.0/1.0)
|   |   |   |   |   |   |   |   |   |   |   |   |   |   17 > 0.010733
|   |   |   |   |   |   |   |   |   |   |   |   |   |   |   17 <= 0.052632: LOW (2.0)
|   |   |   |   |   |   |   |   |   |   |   |   |   |   |   17 > 0.052632: NONE (8.0/1.0)
|   |   |   |   |   |   |   |   |   |   |   |   |   26 > 0.542579: HIGH (2.0)
|   |   |   |   |   |   |   |   |   |   |   |   22 > 0.347031: NONE (29.0/1.0)
|   |   |   |   |   |   |   |   |   |   |   16 > 0.950525: HIGH (4.0)
|   |   |   |   |   |   |   |   |   4 > 0.5: LOW (3.0)
|   |   |   |   |   |   |   4 > 0.75: NONE (29.0)
|   |   |   |   |   |   3 > 0.666667
|   |   |   |   |   |   |   14 <= 0.599913
|   |   |   |   |   |   |   |   18 <= 0.238095
|   |   |   |   |   |   |   |   |   13 <= 0.63283: HIGH (2.0)
|   |   |   |   |   |   |   |   |   13 > 0.63283: LOW (2.0)
|   |   |   |   |   |   |   |   18 > 0.238095
|   |   |   |   |   |   |   |   |   31 <= 0.922773
|   |   |   |   |   |   |   |   |   |   45 <= 0.88: NONE (24.0)
|   |   |   |   |   |   |   |   |   |   45 > 0.88: HIGH (2.0)
|   |   |   |   |   |   |   |   |   31 > 0.922773
|   |   |   |   |   |   |   |   |   |   2 <= 0.083333
|   |   |   |   |   |   |   |   |   |   |   1 <= 0.051694: NONE (2.0)
|   |   |   |   |   |   |   |   |   |   |   1 > 0.051694: LOW (2.0)
|   |   |   |   |   |   |   |   |   |   2 > 0.083333: HIGH (2.0)
|   |   |   |   |   |   |   14 > 0.599913: HIGH (2.0)
|   |   |   |   |   3 > 0.888889
|   |   |   |   |   |   33 <= 0.629053: NONE (64.0/1.0)
|   |   |   |   |   |   33 > 0.629053
|   |   |   |   |   |   |   14 <= 0.632104: NONE (2.0)
|   |   |   |   |   |   |   14 > 0.632104: LOW (2.0)
|   |   |   |   37 > 0.708045
|   |   |   |   |   25 <= 0.166847
|   |   |   |   |   |   13 <= 0.478193
|   |   |   |   |   |   |   3 <= 0.444444
|   |   |   |   |   |   |   |   35 <= 0.155863
|   |   |   |   |   |   |   |   |   15 <= 0.119949
|   |   |   |   |   |   |   |   |   |   36 <= 0.027289
|   |   |   |   |   |   |   |   |   |   |   31 <= 0.212996
|   |   |   |   |   |   |   |   |   |   |   |   31 <= 0.00017
|   |   |   |   |   |   |   |   |   |   |   |   |   24 <= 0.857914
|   |   |   |   |   |   |   |   |   |   |   |   |   |   11 <= 0.114272
|   |   |   |   |   |   |   |   |   |   |   |   |   |   |   20 <= 0.007193: NONE (26.0)
|   |   |   |   |   |   |   |   |   |   |   |   |   |   |   20 > 0.007193
|   |   |   |   |   |   |   |   |   |   |   |   |   |   |   |   44 <= 0.714286
|   |   |   |   |   |   |   |   |   |   |   |   |   |   |   |   |   3 <= 0.095238
|   |   |   |   |   |   |   |   |   |   |   |   |   |   |   |   |   |   44 <= 0.583333
|   |   |   |   |   |   |   |   |   |   |   |   |   |   |   |   |   |   |   16 <= 0.028636
|   |   |   |   |   |   |   |   |   |   |   |   |   |   |   |   |   |   |   |   42 <= 0.004713
|   |   |   |   |   |   |   |   |   |   |   |   |   |   |   |   |   |   |   |   |   42 <= 0.003584
|   |   |   |   |   |   |   |   |   |   |   |   |   |   |   |   |   |   |   |   |   |   42 <= 0.000192
|   |   |   |   |   |   |   |   |   |   |   |   |   |   |   |   |   |   |   |   |   |   |   19 <= 0.5
|   |   |   |   |   |   |   |   |   |   |   |   |   |   |   |   |   |   |   |   |   |   |   |   21 <= 0.773708: LOW (2.0)
|   |   |   |   |   |   |   |   |   |   |   |   |   |   |   |   |   |   |   |   |   |   |   |   21 > 0.773708: NONE (8.0/1.0)
|   |   |   |   |   |   |   |   |   |   |   |   |   |   |   |   |   |   |   |   |   |   |   19 > 0.5: LOW (2.0)
|   |   |   |   |   |   |   |   |   |   |   |   |   |   |   |   |   |   |   |   |   |   42 > 0.000192: NONE (11.0)
|   |   |   |   |   |   |   |   |   |   |   |   |   |   |   |   |   |   |   |   |   42 > 0.003584: HIGH (5.0/1.0)
|   |   |   |   |   |   |   |   |   |   |   |   |   |   |   |   |   |   |   |   42 > 0.004713
|   |   |   |   |   |   |   |   |   |   |   |   |   |   |   |   |   |   |   |   |   4 <= 0.4
|   |   |   |   |   |   |   |   |   |   |   |   |   |   |   |   |   |   |   |   |   |   11 <= 0.082759
|   |   |   |   |   |   |   |   |   |   |   |   |   |   |   |   |   |   |   |   |   |   |   24 <= 0.662496
|   |   |   |   |   |   |   |   |   |   |   |   |   |   |   |   |   |   |   |   |   |   |   |   16 <= 0.020708
|   |   |   |   |   |   |   |   |   |   |   |   |   |   |   |   |   |   |   |   |   |   |   |   |   1 <= 0.02335: NONE (3.0)
|   |   |   |   |   |   |   |   |   |   |   |   |   |   |   |   |   |   |   |   |   |   |   |   |   1 > 0.02335
|   |   |   |   |   |   |   |   |   |   |   |   |   |   |   |   |   |   |   |   |   |   |   |   |   |   42 <= 0.098039: LOW (9.0)
|   |   |   |   |   |   |   |   |   |   |   |   |   |   |   |   |   |   |   |   |   |   |   |   |   |   42 > 0.098039
|   |   |   |   |   |   |   |   |   |   |   |   |   |   |   |   |   |   |   |   |   |   |   |   |   |   |   11 <= 0.045589: LOW (2.0)
|   |   |   |   |   |   |   |   |   |   |   |   |   |   |   |   |   |   |   |   |   |   |   |   |   |   |   11 > 0.045589: NONE (2.0)
|   |   |   |   |   |   |   |   |   |   |   |   |   |   |   |   |   |   |   |   |   |   |   |   16 > 0.020708: NONE (7.0)
|   |   |   |   |   |   |   |   |   |   |   |   |   |   |   |   |   |   |   |   |   |   |   24 > 0.662496
|   |   |   |   |   |   |   |   |   |   |   |   |   |   |   |   |   |   |   |   |   |   |   |   40 <= 0.812264: NONE (28.0)
|   |   |   |   |   |   |   |   |   |   |   |   |   |   |   |   |   |   |   |   |   |   |   |   40 > 0.812264
|   |   |   |   |   |   |   |   |   |   |   |   |   |   |   |   |   |   |   |   |   |   |   |   |   18 <= 0.077922: LOW (2.0)
|   |   |   |   |   |   |   |   |   |   |   |   |   |   |   |   |   |   |   |   |   |   |   |   |   18 > 0.077922: NONE (5.0)
|   |   |   |   |   |   |   |   |   |   |   |   |   |   |   |   |   |   |   |   |   |   11 > 0.082759: LOW (9.0/1.0)
|   |   |   |   |   |   |   |   |   |   |   |   |   |   |   |   |   |   |   |   |   4 > 0.4: LOW (3.0)
|   |   |   |   |   |   |   |   |   |   |   |   |   |   |   |   |   |   |   16 > 0.028636
|   |   |   |   |   |   |   |   |   |   |   |   |   |   |   |   |   |   |   |   44 <= 0.05
|   |   |   |   |   |   |   |   |   |   |   |   |   |   |   |   |   |   |   |   |   1 <= 0.049536: LOW (2.0)
|   |   |   |   |   |   |   |   |   |   |   |   |   |   |   |   |   |   |   |   |   1 > 0.049536: NONE (2.0/1.0)
|   |   |   |   |   |   |   |   |   |   |   |   |   |   |   |   |   |   |   |   44 > 0.05: NONE (89.0/7.0)
|   |   |   |   |   |   |   |   |   |   |   |   |   |   |   |   |   |   44 > 0.583333
|   |   |   |   |   |   |   |   |   |   |   |   |   |   |   |   |   |   |   16 <= 0.018717
|   |   |   |   |   |   |   |   |   |   |   |   |   |   |   |   |   |   |   |   44 <= 0.625: NONE (6.0)
|   |   |   |   |   |   |   |   |   |   |   |   |   |   |   |   |   |   |   |   44 > 0.625
|   |   |   |   |   |   |   |   |   |   |   |   |   |   |   |   |   |   |   |   |   38 <= 0.685568
|   |   |   |   |   |   |   |   |   |   |   |   |   |   |   |   |   |   |   |   |   |   16 <= 0.011317: NONE (2.0/1.0)
|   |   |   |   |   |   |   |   |   |   |   |   |   |   |   |   |   |   |   |   |   |   16 > 0.011317: HIGH (3.0)
|   |   |   |   |   |   |   |   |   |   |   |   |   |   |   |   |   |   |   |   |   38 > 0.685568: NONE (9.0)
|   |   |   |   |   |   |   |   |   |   |   |   |   |   |   |   |   |   |   16 > 0.018717
|   |   |   |   |   |   |   |   |   |   |   |   |   |   |   |   |   |   |   |   44 <= 0.666667
|   |   |   |   |   |   |   |   |   |   |   |   |   |   |   |   |   |   |   |   |   24 <= 0.734717
|   |   |   |   |   |   |   |   |   |   |   |   |   |   |   |   |   |   |   |   |   |   24 <= 0.616423
|   |   |   |   |   |   |   |   |   |   |   |   |   |   |   |   |   |   |   |   |   |   |   16 <= 0.072901: LOW (5.0)
|   |   |   |   |   |   |   |   |   |   |   |   |   |   |   |   |   |   |   |   |   |   |   16 > 0.072901: NONE (4.0/1.0)
|   |   |   |   |   |   |   |   |   |   |   |   |   |   |   |   |   |   |   |   |   |   24 > 0.616423: NONE (10.0)
|   |   |   |   |   |   |   |   |   |   |   |   |   |   |   |   |   |   |   |   |   24 > 0.734717: LOW (16.0/1.0)
|   |   |   |   |   |   |   |   |   |   |   |   |   |   |   |   |   |   |   |   44 > 0.666667: NONE (3.0/1.0)
|   |   |   |   |   |   |   |   |   |   |   |   |   |   |   |   |   3 > 0.095238: NONE (10.0)
|   |   |   |   |   |   |   |   |   |   |   |   |   |   |   |   44 > 0.714286
|   |   |   |   |   |   |   |   |   |   |   |   |   |   |   |   |   5 <= 0.074074
|   |   |   |   |   |   |   |   |   |   |   |   |   |   |   |   |   |   19 <= 0.266667
|   |   |   |   |   |   |   |   |   |   |   |   |   |   |   |   |   |   |   18 <= 0.458333: LOW (7.0/1.0)
|   |   |   |   |   |   |   |   |   |   |   |   |   |   |   |   |   |   |   18 > 0.458333: NONE (5.0)
|   |   |   |   |   |   |   |   |   |   |   |   |   |   |   |   |   |   19 > 0.266667
|   |   |   |   |   |   |   |   |   |   |   |   |   |   |   |   |   |   |   24 <= 0.81432: NONE (46.0)
|   |   |   |   |   |   |   |   |   |   |   |   |   |   |   |   |   |   |   24 > 0.81432
|   |   |   |   |   |   |   |   |   |   |   |   |   |   |   |   |   |   |   |   40 <= 0.813419: LOW (2.0)
|   |   |   |   |   |   |   |   |   |   |   |   |   |   |   |   |   |   |   |   40 > 0.813419: NONE (4.0)
|   |   |   |   |   |   |   |   |   |   |   |   |   |   |   |   |   5 > 0.074074
|   |   |   |   |   |   |   |   |   |   |   |   |   |   |   |   |   |   40 <= 0.786502
|   |   |   |   |   |   |   |   |   |   |   |   |   |   |   |   |   |   |   19 <= 0.419355: NONE (4.0)
|   |   |   |   |   |   |   |   |   |   |   |   |   |   |   |   |   |   |   19 > 0.419355
|   |   |   |   |   |   |   |   |   |   |   |   |   |   |   |   |   |   |   |   43 <= 0.186441
|   |   |   |   |   |   |   |   |   |   |   |   |   |   |   |   |   |   |   |   |   40 <= 0.660632
|   |   |   |   |   |   |   |   |   |   |   |   |   |   |   |   |   |   |   |   |   |   19 <= 0.583333: LOW (2.0)
|   |   |   |   |   |   |   |   |   |   |   |   |   |   |   |   |   |   |   |   |   |   19 > 0.583333: NONE (4.0)
|   |   |   |   |   |   |   |   |   |   |   |   |   |   |   |   |   |   |   |   |   40 > 0.660632: LOW (11.0)
|   |   |   |   |   |   |   |   |   |   |   |   |   |   |   |   |   |   |   |   43 > 0.186441: NONE (2.0)
|   |   |   |   |   |   |   |   |   |   |   |   |   |   |   |   |   |   40 > 0.786502: NONE (7.0)
|   |   |   |   |   |   |   |   |   |   |   |   |   |   11 > 0.114272
|   |   |   |   |   |   |   |   |   |   |   |   |   |   |   19 <= 0.26087: NONE (2.0)
|   |   |   |   |   |   |   |   |   |   |   |   |   |   |   19 > 0.26087
|   |   |   |   |   |   |   |   |   |   |   |   |   |   |   |   18 <= 0.178571
|   |   |   |   |   |   |   |   |   |   |   |   |   |   |   |   |   37 <= 0.730993: NONE (2.0)
|   |   |   |   |   |   |   |   |   |   |   |   |   |   |   |   |   37 > 0.730993: LOW (2.0)
|   |   |   |   |   |   |   |   |   |   |   |   |   |   |   |   18 > 0.178571: LOW (10.0)
|   |   |   |   |   |   |   |   |   |   |   |   |   24 > 0.857914
|   |   |   |   |   |   |   |   |   |   |   |   |   |   44 <= 0.714286
|   |   |   |   |   |   |   |   |   |   |   |   |   |   |   4 <= 0.166667
|   |   |   |   |   |   |   |   |   |   |   |   |   |   |   |   22 <= 0.948113
|   |   |   |   |   |   |   |   |   |   |   |   |   |   |   |   |   44 <= 0.25
|   |   |   |   |   |   |   |   |   |   |   |   |   |   |   |   |   |   22 <= 0.935335: NONE (7.0/1.0)
|   |   |   |   |   |   |   |   |   |   |   |   |   |   |   |   |   |   22 > 0.935335: LOW (2.0/1.0)
|   |   |   |   |   |   |   |   |   |   |   |   |   |   |   |   |   44 > 0.25
|   |   |   |   |   |   |   |   |   |   |   |   |   |   |   |   |   |   43 <= 0.035714
|   |   |   |   |   |   |   |   |   |   |   |   |   |   |   |   |   |   |   42 <= 0.095238
|   |   |   |   |   |   |   |   |   |   |   |   |   |   |   |   |   |   |   |   44 <= 0.411765: LOW (6.0/1.0)
|   |   |   |   |   |   |   |   |   |   |   |   |   |   |   |   |   |   |   |   44 > 0.411765: NONE (19.0/1.0)
|   |   |   |   |   |   |   |   |   |   |   |   |   |   |   |   |   |   |   42 > 0.095238
|   |   |   |   |   |   |   |   |   |   |   |   |   |   |   |   |   |   |   |   41 <= 0.123395: LOW (9.0)
|   |   |   |   |   |   |   |   |   |   |   |   |   |   |   |   |   |   |   |   41 > 0.123395: NONE (2.0)
|   |   |   |   |   |   |   |   |   |   |   |   |   |   |   |   |   |   43 > 0.035714: LOW (10.0/1.0)
|   |   |   |   |   |   |   |   |   |   |   |   |   |   |   |   22 > 0.948113
|   |   |   |   |   |   |   |   |   |   |   |   |   |   |   |   |   22 <= 0.998617: NONE (28.0)
|   |   |   |   |   |   |   |   |   |   |   |   |   |   |   |   |   22 > 0.998617
|   |   |   |   |   |   |   |   |   |   |   |   |   |   |   |   |   |   40 <= 0.998913
|   |   |   |   |   |   |   |   |   |   |   |   |   |   |   |   |   |   |   40 <= 0.958342: NONE (4.0)
|   |   |   |   |   |   |   |   |   |   |   |   |   |   |   |   |   |   |   40 > 0.958342: LOW (6.0/1.0)
|   |   |   |   |   |   |   |   |   |   |   |   |   |   |   |   |   |   40 > 0.998913: NONE (13.0/1.0)
|   |   |   |   |   |   |   |   |   |   |   |   |   |   |   4 > 0.166667: LOW (4.0)
|   |   |   |   |   |   |   |   |   |   |   |   |   |   44 > 0.714286
|   |   |   |   |   |   |   |   |   |   |   |   |   |   |   11 <= 0.110276: LOW (37.0/9.0)
|   |   |   |   |   |   |   |   |   |   |   |   |   |   |   11 > 0.110276: NONE (4.0)
|   |   |   |   |   |   |   |   |   |   |   |   31 > 0.00017
|   |   |   |   |   |   |   |   |   |   |   |   |   29 <= 0.578437
|   |   |   |   |   |   |   |   |   |   |   |   |   |   17 <= 0.081967: LOW (8.0)
|   |   |   |   |   |   |   |   |   |   |   |   |   |   17 > 0.081967: NONE (7.0/1.0)
|   |   |   |   |   |   |   |   |   |   |   |   |   29 > 0.578437: NONE (6.0)
|   |   |   |   |   |   |   |   |   |   |   31 > 0.212996
|   |   |   |   |   |   |   |   |   |   |   |   24 <= 0.757301: NONE (16.0)
|   |   |   |   |   |   |   |   |   |   |   |   24 > 0.757301
|   |   |   |   |   |   |   |   |   |   |   |   |   17 <= 0.107692: NONE (2.0/1.0)
|   |   |   |   |   |   |   |   |   |   |   |   |   17 > 0.107692: HIGH (2.0)
|   |   |   |   |   |   |   |   |   |   36 > 0.027289: NONE (27.0/2.0)
|   |   |   |   |   |   |   |   |   15 > 0.119949
|   |   |   |   |   |   |   |   |   |   45 <= 0.194215
|   |   |   |   |   |   |   |   |   |   |   1 <= 0.101904
|   |   |   |   |   |   |   |   |   |   |   |   42 <= 0.003021: LOW (5.0/1.0)
|   |   |   |   |   |   |   |   |   |   |   |   42 > 0.003021
|   |   |   |   |   |   |   |   |   |   |   |   |   3 <= 0.125
|   |   |   |   |   |   |   |   |   |   |   |   |   |   18 <= 0.108108: HIGH (5.0/1.0)
|   |   |   |   |   |   |   |   |   |   |   |   |   |   18 > 0.108108: NONE (6.0)
|   |   |   |   |   |   |   |   |   |   |   |   |   3 > 0.125: HIGH (2.0)
|   |   |   |   |   |   |   |   |   |   |   1 > 0.101904
|   |   |   |   |   |   |   |   |   |   |   |   22 <= 0.305143: LOW (10.0/2.0)
|   |   |   |   |   |   |   |   |   |   |   |   22 > 0.305143
|   |   |   |   |   |   |   |   |   |   |   |   |   23 <= 0.996685
|   |   |   |   |   |   |   |   |   |   |   |   |   |   15 <= 0.935468
|   |   |   |   |   |   |   |   |   |   |   |   |   |   |   41 <= 0.021714
|   |   |   |   |   |   |   |   |   |   |   |   |   |   |   |   19 <= 0.210526
|   |   |   |   |   |   |   |   |   |   |   |   |   |   |   |   |   45 <= 0.113208
|   |   |   |   |   |   |   |   |   |   |   |   |   |   |   |   |   |   1 <= 0.141176: LOW (4.0/1.0)
|   |   |   |   |   |   |   |   |   |   |   |   |   |   |   |   |   |   1 > 0.141176
|   |   |   |   |   |   |   |   |   |   |   |   |   |   |   |   |   |   |   24 <= 0.742293: NONE (11.0)
|   |   |   |   |   |   |   |   |   |   |   |   |   |   |   |   |   |   |   24 > 0.742293: LOW (4.0/1.0)
|   |   |   |   |   |   |   |   |   |   |   |   |   |   |   |   |   45 > 0.113208: NONE (10.0)
|   |   |   |   |   |   |   |   |   |   |   |   |   |   |   |   19 > 0.210526
|   |   |   |   |   |   |   |   |   |   |   |   |   |   |   |   |   37 <= 0.764859: LOW (8.0)
|   |   |   |   |   |   |   |   |   |   |   |   |   |   |   |   |   37 > 0.764859
|   |   |   |   |   |   |   |   |   |   |   |   |   |   |   |   |   |   5 <= 0.308176: LOW (8.0/2.0)
|   |   |   |   |   |   |   |   |   |   |   |   |   |   |   |   |   |   5 > 0.308176: NONE (7.0/1.0)
|   |   |   |   |   |   |   |   |   |   |   |   |   |   |   41 > 0.021714: NONE (30.0/1.0)
|   |   |   |   |   |   |   |   |   |   |   |   |   |   15 > 0.935468: LOW (9.0/1.0)
|   |   |   |   |   |   |   |   |   |   |   |   |   23 > 0.996685
|   |   |   |   |   |   |   |   |   |   |   |   |   |   41 <= 0.000238: NONE (5.0/1.0)
|   |   |   |   |   |   |   |   |   |   |   |   |   |   41 > 0.000238
|   |   |   |   |   |   |   |   |   |   |   |   |   |   |   44 <= 0.222222
|   |   |   |   |   |   |   |   |   |   |   |   |   |   |   |   41 <= 0.002099: LOW (2.0)
|   |   |   |   |   |   |   |   |   |   |   |   |   |   |   |   41 > 0.002099: HIGH (4.0/1.0)
|   |   |   |   |   |   |   |   |   |   |   |   |   |   |   44 > 0.222222: LOW (8.0/1.0)
|   |   |   |   |   |   |   |   |   |   45 > 0.194215
|   |   |   |   |   |   |   |   |   |   |   13 <= 0.260888
|   |   |   |   |   |   |   |   |   |   |   |   2 <= 0.01676
|   |   |   |   |   |   |   |   |   |   |   |   |   1 <= 0.667954
|   |   |   |   |   |   |   |   |   |   |   |   |   |   23 <= 0.916786
|   |   |   |   |   |   |   |   |   |   |   |   |   |   |   37 <= 0.819205
|   |   |   |   |   |   |   |   |   |   |   |   |   |   |   |   43 <= 0.641026
|   |   |   |   |   |   |   |   |   |   |   |   |   |   |   |   |   35 <= 0.000179
|   |   |   |   |   |   |   |   |   |   |   |   |   |   |   |   |   |   4 <= 0.25
|   |   |   |   |   |   |   |   |   |   |   |   |   |   |   |   |   |   |   24 <= 0.518906
|   |   |   |   |   |   |   |   |   |   |   |   |   |   |   |   |   |   |   |   42 <= 0.00003
|   |   |   |   |   |   |   |   |   |   |   |   |   |   |   |   |   |   |   |   |   23 <= 0.55516: LOW (3.0)
|   |   |   |   |   |   |   |   |   |   |   |   |   |   |   |   |   |   |   |   |   23 > 0.55516: NONE (2.0)
|   |   |   |   |   |   |   |   |   |   |   |   |   |   |   |   |   |   |   |   42 > 0.00003: NONE (37.0)
|   |   |   |   |   |   |   |   |   |   |   |   |   |   |   |   |   |   |   24 > 0.518906
|   |   |   |   |   |   |   |   |   |   |   |   |   |   |   |   |   |   |   |   44 <= 0.375
|   |   |   |   |   |   |   |   |   |   |   |   |   |   |   |   |   |   |   |   |   45 <= 0.674074: NONE (18.0)
|   |   |   |   |   |   |   |   |   |   |   |   |   |   |   |   |   |   |   |   |   45 > 0.674074: LOW (2.0)
|   |   |   |   |   |   |   |   |   |   |   |   |   |   |   |   |   |   |   |   44 > 0.375
|   |   |   |   |   |   |   |   |   |   |   |   |   |   |   |   |   |   |   |   |   45 <= 0.705882
|   |   |   |   |   |   |   |   |   |   |   |   |   |   |   |   |   |   |   |   |   |   40 <= 0.686569
|   |   |   |   |   |   |   |   |   |   |   |   |   |   |   |   |   |   |   |   |   |   |   19 <= 0.322581
|   |   |   |   |   |   |   |   |   |   |   |   |   |   |   |   |   |   |   |   |   |   |   |   38 <= 0.627877: NONE (15.0)
|   |   |   |   |   |   |   |   |   |   |   |   |   |   |   |   |   |   |   |   |   |   |   |   38 > 0.627877
|   |   |   |   |   |   |   |   |   |   |   |   |   |   |   |   |   |   |   |   |   |   |   |   |   16 <= 0.201928: NONE (4.0/1.0)
|   |   |   |   |   |   |   |   |   |   |   |   |   |   |   |   |   |   |   |   |   |   |   |   |   16 > 0.201928: LOW (3.0)
|   |   |   |   |   |   |   |   |   |   |   |   |   |   |   |   |   |   |   |   |   |   |   19 > 0.322581
|   |   |   |   |   |   |   |   |   |   |   |   |   |   |   |   |   |   |   |   |   |   |   |   5 <= 0.134615
|   |   |   |   |   |   |   |   |   |   |   |   |   |   |   |   |   |   |   |   |   |   |   |   |   16 <= 0.026653: LOW (3.0/1.0)
|   |   |   |   |   |   |   |   |   |   |   |   |   |   |   |   |   |   |   |   |   |   |   |   |   16 > 0.026653
|   |   |   |   |   |   |   |   |   |   |   |   |   |   |   |   |   |   |   |   |   |   |   |   |   |   19 <= 0.4: LOW (3.0/1.0)
|   |   |   |   |   |   |   |   |   |   |   |   |   |   |   |   |   |   |   |   |   |   |   |   |   |   19 > 0.4: NONE (7.0)
|   |   |   |   |   |   |   |   |   |   |   |   |   |   |   |   |   |   |   |   |   |   |   |   5 > 0.134615
|   |   |   |   |   |   |   |   |   |   |   |   |   |   |   |   |   |   |   |   |   |   |   |   |   42 <= 0.019646: LOW (12.0/3.0)
|   |   |   |   |   |   |   |   |   |   |   |   |   |   |   |   |   |   |   |   |   |   |   |   |   42 > 0.019646
|   |   |   |   |   |   |   |   |   |   |   |   |   |   |   |   |   |   |   |   |   |   |   |   |   |   1 <= 0.170732: LOW (3.0)
|   |   |   |   |   |   |   |   |   |   |   |   |   |   |   |   |   |   |   |   |   |   |   |   |   |   1 > 0.170732
|   |   |   |   |   |   |   |   |   |   |   |   |   |   |   |   |   |   |   |   |   |   |   |   |   |   |   18 <= 0.086957: HIGH (4.0)
|   |   |   |   |   |   |   |   |   |   |   |   |   |   |   |   |   |   |   |   |   |   |   |   |   |   |   18 > 0.086957: LOW (3.0/1.0)
|   |   |   |   |   |   |   |   |   |   |   |   |   |   |   |   |   |   |   |   |   |   40 > 0.686569
|   |   |   |   |   |   |   |   |   |   |   |   |   |   |   |   |   |   |   |   |   |   |   19 <= 0.148148: HIGH (3.0)
|   |   |   |   |   |   |   |   |   |   |   |   |   |   |   |   |   |   |   |   |   |   |   19 > 0.148148
|   |   |   |   |   |   |   |   |   |   |   |   |   |   |   |   |   |   |   |   |   |   |   |   17 <= 0.007634
|   |   |   |   |   |   |   |   |   |   |   |   |   |   |   |   |   |   |   |   |   |   |   |   |   45 <= 0.417143: NONE (3.0)
|   |   |   |   |   |   |   |   |   |   |   |   |   |   |   |   |   |   |   |   |   |   |   |   |   45 > 0.417143: LOW (5.0/1.0)
|   |   |   |   |   |   |   |   |   |   |   |   |   |   |   |   |   |   |   |   |   |   |   |   17 > 0.007634
|   |   |   |   |   |   |   |   |   |   |   |   |   |   |   |   |   |   |   |   |   |   |   |   |   23 <= 0.901257
|   |   |   |   |   |   |   |   |   |   |   |   |   |   |   |   |   |   |   |   |   |   |   |   |   |   18 <= 0.071429
|   |   |   |   |   |   |   |   |   |   |   |   |   |   |   |   |   |   |   |   |   |   |   |   |   |   |   17 <= 0.071429
|   |   |   |   |   |   |   |   |   |   |   |   |   |   |   |   |   |   |   |   |   |   |   |   |   |   |   |   17 <= 0.023022: NONE (2.0)
|   |   |   |   |   |   |   |   |   |   |   |   |   |   |   |   |   |   |   |   |   |   |   |   |   |   |   |   17 > 0.023022: HIGH (4.0)
|   |   |   |   |   |   |   |   |   |   |   |   |   |   |   |   |   |   |   |   |   |   |   |   |   |   |   17 > 0.071429: NONE (13.0/1.0)
|   |   |   |   |   |   |   |   |   |   |   |   |   |   |   |   |   |   |   |   |   |   |   |   |   |   18 > 0.071429: NONE (20.0/1.0)
|   |   |   |   |   |   |   |   |   |   |   |   |   |   |   |   |   |   |   |   |   |   |   |   |   23 > 0.901257: LOW (2.0/1.0)
|   |   |   |   |   |   |   |   |   |   |   |   |   |   |   |   |   |   |   |   |   45 > 0.705882: NONE (27.0/2.0)
|   |   |   |   |   |   |   |   |   |   |   |   |   |   |   |   |   |   4 > 0.25
|   |   |   |   |   |   |   |   |   |   |   |   |   |   |   |   |   |   |   15 <= 0.253262: HIGH (2.0)
|   |   |   |   |   |   |   |   |   |   |   |   |   |   |   |   |   |   |   15 > 0.253262: NONE (8.0/1.0)
|   |   |   |   |   |   |   |   |   |   |   |   |   |   |   |   |   35 > 0.000179
|   |   |   |   |   |   |   |   |   |   |   |   |   |   |   |   |   |   18 <= 0.195122: NONE (6.0/1.0)
|   |   |   |   |   |   |   |   |   |   |   |   |   |   |   |   |   |   18 > 0.195122: LOW (3.0)
|   |   |   |   |   |   |   |   |   |   |   |   |   |   |   |   43 > 0.641026
|   |   |   |   |   |   |   |   |   |   |   |   |   |   |   |   |   44 <= 0.666667
|   |   |   |   |   |   |   |   |   |   |   |   |   |   |   |   |   |   17 <= 0.045802: NONE (4.0)
|   |   |   |   |   |   |   |   |   |   |   |   |   |   |   |   |   |   17 > 0.045802: LOW (7.0)
|   |   |   |   |   |   |   |   |   |   |   |   |   |   |   |   |   44 > 0.666667: HIGH (2.0)
|   |   |   |   |   |   |   |   |   |   |   |   |   |   |   37 > 0.819205
|   |   |   |   |   |   |   |   |   |   |   |   |   |   |   |   44 <= 0.222222
|   |   |   |   |   |   |   |   |   |   |   |   |   |   |   |   |   19 <= 0.136364: NONE (3.0)
|   |   |   |   |   |   |   |   |   |   |   |   |   |   |   |   |   19 > 0.136364: LOW (3.0)
|   |   |   |   |   |   |   |   |   |   |   |   |   |   |   |   44 > 0.222222
|   |   |   |   |   |   |   |   |   |   |   |   |   |   |   |   |   43 <= 0.337237
|   |   |   |   |   |   |   |   |   |   |   |   |   |   |   |   |   |   41 <= 0.215303
|   |   |   |   |   |   |   |   |   |   |   |   |   |   |   |   |   |   |   17 <= 0.485714
|   |   |   |   |   |   |   |   |   |   |   |   |   |   |   |   |   |   |   |   5 <= 0.141987
|   |   |   |   |   |   |   |   |   |   |   |   |   |   |   |   |   |   |   |   |   1 <= 0.142857
|   |   |   |   |   |   |   |   |   |   |   |   |   |   |   |   |   |   |   |   |   |   18 <= 0.195122: NONE (33.0/1.0)
|   |   |   |   |   |   |   |   |   |   |   |   |   |   |   |   |   |   |   |   |   |   18 > 0.195122
|   |   |   |   |   |   |   |   |   |   |   |   |   |   |   |   |   |   |   |   |   |   |   18 <= 0.219512: HIGH (3.0)
|   |   |   |   |   |   |   |   |   |   |   |   |   |   |   |   |   |   |   |   |   |   |   18 > 0.219512: NONE (34.0)
|   |   |   |   |   |   |   |   |   |   |   |   |   |   |   |   |   |   |   |   |   1 > 0.142857: HIGH (2.0)
|   |   |   |   |   |   |   |   |   |   |   |   |   |   |   |   |   |   |   |   5 > 0.141987: NONE (68.0/2.0)
|   |   |   |   |   |   |   |   |   |   |   |   |   |   |   |   |   |   |   17 > 0.485714
|   |   |   |   |   |   |   |   |   |   |   |   |   |   |   |   |   |   |   |   19 <= 0.461538: NONE (3.0)
|   |   |   |   |   |   |   |   |   |   |   |   |   |   |   |   |   |   |   |   19 > 0.461538: LOW (4.0/1.0)
|   |   |   |   |   |   |   |   |   |   |   |   |   |   |   |   |   |   41 > 0.215303
|   |   |   |   |   |   |   |   |   |   |   |   |   |   |   |   |   |   |   1 <= 0.141176: NONE (4.0)
|   |   |   |   |   |   |   |   |   |   |   |   |   |   |   |   |   |   |   1 > 0.141176: LOW (3.0)
|   |   |   |   |   |   |   |   |   |   |   |   |   |   |   |   |   43 > 0.337237
|   |   |   |   |   |   |   |   |   |   |   |   |   |   |   |   |   |   43 <= 0.468085
|   |   |   |   |   |   |   |   |   |   |   |   |   |   |   |   |   |   |   20 <= 0.012377: NONE (2.0)
|   |   |   |   |   |   |   |   |   |   |   |   |   |   |   |   |   |   |   20 > 0.012377: HIGH (5.0)
|   |   |   |   |   |   |   |   |   |   |   |   |   |   |   |   |   |   43 > 0.468085: NONE (20.0/2.0)
|   |   |   |   |   |   |   |   |   |   |   |   |   |   23 > 0.916786
|   |   |   |   |   |   |   |   |   |   |   |   |   |   |   33 <= 0.515791
|   |   |   |   |   |   |   |   |   |   |   |   |   |   |   |   15 <= 0.244202
|   |   |   |   |   |   |   |   |   |   |   |   |   |   |   |   |   4 <= 0.25
|   |   |   |   |   |   |   |   |   |   |   |   |   |   |   |   |   |   21 <= 0.780244: NONE (13.0)
|   |   |   |   |   |   |   |   |   |   |   |   |   |   |   |   |   |   21 > 0.780244
|   |   |   |   |   |   |   |   |   |   |   |   |   |   |   |   |   |   |   45 <= 0.943396
|   |   |   |   |   |   |   |   |   |   |   |   |   |   |   |   |   |   |   |   24 <= 0.918323
|   |   |   |   |   |   |   |   |   |   |   |   |   |   |   |   |   |   |   |   |   44 <= 0.25: NONE (4.0)
|   |   |   |   |   |   |   |   |   |   |   |   |   |   |   |   |   |   |   |   |   44 > 0.25
|   |   |   |   |   |   |   |   |   |   |   |   |   |   |   |   |   |   |   |   |   |   17 <= 0.166667
|   |   |   |   |   |   |   |   |   |   |   |   |   |   |   |   |   |   |   |   |   |   |   22 <= 0.765849: NONE (3.0/1.0)
|   |   |   |   |   |   |   |   |   |   |   |   |   |   |   |   |   |   |   |   |   |   |   22 > 0.765849: LOW (7.0)
|   |   |   |   |   |   |   |   |   |   |   |   |   |   |   |   |   |   |   |   |   |   17 > 0.166667: NONE (3.0)
|   |   |   |   |   |   |   |   |   |   |   |   |   |   |   |   |   |   |   |   24 > 0.918323: NONE (13.0)
|   |   |   |   |   |   |   |   |   |   |   |   |   |   |   |   |   |   |   45 > 0.943396: LOW (4.0)
|   |   |   |   |   |   |   |   |   |   |   |   |   |   |   |   |   4 > 0.25: NONE (3.0)
|   |   |   |   |   |   |   |   |   |   |   |   |   |   |   |   15 > 0.244202
|   |   |   |   |   |   |   |   |   |   |   |   |   |   |   |   |   24 <= 0.62898
|   |   |   |   |   |   |   |   |   |   |   |   |   |   |   |   |   |   1 <= 0.373047: LOW (10.0/1.0)
|   |   |   |   |   |   |   |   |   |   |   |   |   |   |   |   |   |   1 > 0.373047: HIGH (2.0)
|   |   |   |   |   |   |   |   |   |   |   |   |   |   |   |   |   24 > 0.62898
|   |   |   |   |   |   |   |   |   |   |   |   |   |   |   |   |   |   19 <= 0.212121
|   |   |   |   |   |   |   |   |   |   |   |   |   |   |   |   |   |   |   1 <= 0.328351: HIGH (7.0/1.0)
|   |   |   |   |   |   |   |   |   |   |   |   |   |   |   |   |   |   |   1 > 0.328351: NONE (3.0)
|   |   |   |   |   |   |   |   |   |   |   |   |   |   |   |   |   |   19 > 0.212121
|   |   |   |   |   |   |   |   |   |   |   |   |   |   |   |   |   |   |   42 <= 0.438356
|   |   |   |   |   |   |   |   |   |   |   |   |   |   |   |   |   |   |   |   40 <= 0.908893
|   |   |   |   |   |   |   |   |   |   |   |   |   |   |   |   |   |   |   |   |   22 <= 0.809519
|   |   |   |   |   |   |   |   |   |   |   |   |   |   |   |   |   |   |   |   |   |   18 <= 0.027778
|   |   |   |   |   |   |   |   |   |   |   |   |   |   |   |   |   |   |   |   |   |   |   22 <= 0.739701
|   |   |   |   |   |   |   |   |   |   |   |   |   |   |   |   |   |   |   |   |   |   |   |   44 <= 0.444444
|   |   |   |   |   |   |   |   |   |   |   |   |   |   |   |   |   |   |   |   |   |   |   |   |   1 <= 0.474926: LOW (2.0)
|   |   |   |   |   |   |   |   |   |   |   |   |   |   |   |   |   |   |   |   |   |   |   |   |   1 > 0.474926: NONE (2.0)
|   |   |   |   |   |   |   |   |   |   |   |   |   |   |   |   |   |   |   |   |   |   |   |   44 > 0.444444: NONE (8.0)
|   |   |   |   |   |   |   |   |   |   |   |   |   |   |   |   |   |   |   |   |   |   |   22 > 0.739701: LOW (3.0/1.0)
|   |   |   |   |   |   |   |   |   |   |   |   |   |   |   |   |   |   |   |   |   |   18 > 0.027778: NONE (13.0)
|   |   |   |   |   |   |   |   |   |   |   |   |   |   |   |   |   |   |   |   |   22 > 0.809519
|   |   |   |   |   |   |   |   |   |   |   |   |   |   |   |   |   |   |   |   |   |   43 <= 0.494624
|   |   |   |   |   |   |   |   |   |   |   |   |   |   |   |   |   |   |   |   |   |   |   11 <= 0.565354
|   |   |   |   |   |   |   |   |   |   |   |   |   |   |   |   |   |   |   |   |   |   |   |   22 <= 0.843628
|   |   |   |   |   |   |   |   |   |   |   |   |   |   |   |   |   |   |   |   |   |   |   |   |   19 <= 0.625: HIGH (5.0/1.0)
|   |   |   |   |   |   |   |   |   |   |   |   |   |   |   |   |   |   |   |   |   |   |   |   |   19 > 0.625: NONE (2.0)
|   |   |   |   |   |   |   |   |   |   |   |   |   |   |   |   |   |   |   |   |   |   |   |   22 > 0.843628: NONE (10.0)
|   |   |   |   |   |   |   |   |   |   |   |   |   |   |   |   |   |   |   |   |   |   |   11 > 0.565354: HIGH (9.0/1.0)
|   |   |   |   |   |   |   |   |   |   |   |   |   |   |   |   |   |   |   |   |   |   43 > 0.494624: LOW (2.0)
|   |   |   |   |   |   |   |   |   |   |   |   |   |   |   |   |   |   |   |   40 > 0.908893
|   |   |   |   |   |   |   |   |   |   |   |   |   |   |   |   |   |   |   |   |   22 <= 0.890192: LOW (5.0)
|   |   |   |   |   |   |   |   |   |   |   |   |   |   |   |   |   |   |   |   |   22 > 0.890192: NONE (23.0/5.0)
|   |   |   |   |   |   |   |   |   |   |   |   |   |   |   |   |   |   |   42 > 0.438356: LOW (3.0)
|   |   |   |   |   |   |   |   |   |   |   |   |   |   |   33 > 0.515791: LOW (7.0/1.0)
|   |   |   |   |   |   |   |   |   |   |   |   |   1 > 0.667954
|   |   |   |   |   |   |   |   |   |   |   |   |   |   16 <= 0.51439
|   |   |   |   |   |   |   |   |   |   |   |   |   |   |   19 <= 0.285714
|   |   |   |   |   |   |   |   |   |   |   |   |   |   |   |   37 <= 0.892915: NONE (10.0)
|   |   |   |   |   |   |   |   |   |   |   |   |   |   |   |   37 > 0.892915: LOW (2.0)
|   |   |   |   |   |   |   |   |   |   |   |   |   |   |   19 > 0.285714: NONE (41.0)
|   |   |   |   |   |   |   |   |   |   |   |   |   |   16 > 0.51439
|   |   |   |   |   |   |   |   |   |   |   |   |   |   |   14 <= 0.481688
|   |   |   |   |   |   |   |   |   |   |   |   |   |   |   |   17 <= 0.135922
|   |   |   |   |   |   |   |   |   |   |   |   |   |   |   |   |   34 <= 0.010331
|   |   |   |   |   |   |   |   |   |   |   |   |   |   |   |   |   |   45 <= 0.385185
|   |   |   |   |   |   |   |   |   |   |   |   |   |   |   |   |   |   |   40 <= 0.53612: NONE (3.0/1.0)
|   |   |   |   |   |   |   |   |   |   |   |   |   |   |   |   |   |   |   40 > 0.53612
|   |   |   |   |   |   |   |   |   |   |   |   |   |   |   |   |   |   |   |   23 <= 0.983667: LOW (9.0)
|   |   |   |   |   |   |   |   |   |   |   |   |   |   |   |   |   |   |   |   23 > 0.983667
|   |   |   |   |   |   |   |   |   |   |   |   |   |   |   |   |   |   |   |   |   19 <= 0.307692: NONE (2.0)
|   |   |   |   |   |   |   |   |   |   |   |   |   |   |   |   |   |   |   |   |   19 > 0.307692: LOW (2.0)
|   |   |   |   |   |   |   |   |   |   |   |   |   |   |   |   |   |   45 > 0.385185
|   |   |   |   |   |   |   |   |   |   |   |   |   |   |   |   |   |   |   17 <= 0.019678
|   |   |   |   |   |   |   |   |   |   |   |   |   |   |   |   |   |   |   |   17 <= 0.000767: NONE (4.0/1.0)
|   |   |   |   |   |   |   |   |   |   |   |   |   |   |   |   |   |   |   |   17 > 0.000767: LOW (3.0)
|   |   |   |   |   |   |   |   |   |   |   |   |   |   |   |   |   |   |   17 > 0.019678: NONE (14.0)
|   |   |   |   |   |   |   |   |   |   |   |   |   |   |   |   |   34 > 0.010331: NONE (2.0)
|   |   |   |   |   |   |   |   |   |   |   |   |   |   |   |   17 > 0.135922: NONE (20.0)
|   |   |   |   |   |   |   |   |   |   |   |   |   |   |   14 > 0.481688: LOW (3.0)
|   |   |   |   |   |   |   |   |   |   |   |   2 > 0.01676
|   |   |   |   |   |   |   |   |   |   |   |   |   19 <= 0.233333
|   |   |   |   |   |   |   |   |   |   |   |   |   |   17 <= 0.346939: HIGH (2.0)
|   |   |   |   |   |   |   |   |   |   |   |   |   |   17 > 0.346939: NONE (2.0)
|   |   |   |   |   |   |   |   |   |   |   |   |   19 > 0.233333: NONE (24.0/1.0)
|   |   |   |   |   |   |   |   |   |   |   13 > 0.260888
|   |   |   |   |   |   |   |   |   |   |   |   34 <= 0.129433
|   |   |   |   |   |   |   |   |   |   |   |   |   34 <= 0.028115
|   |   |   |   |   |   |   |   |   |   |   |   |   |   16 <= 0.066756
|   |   |   |   |   |   |   |   |   |   |   |   |   |   |   44 <= 0.7
|   |   |   |   |   |   |   |   |   |   |   |   |   |   |   |   43 <= 0.076233: NONE (8.0)
|   |   |   |   |   |   |   |   |   |   |   |   |   |   |   |   43 > 0.076233: HIGH (3.0/1.0)
|   |   |   |   |   |   |   |   |   |   |   |   |   |   |   44 > 0.7: HIGH (2.0)
|   |   |   |   |   |   |   |   |   |   |   |   |   |   16 > 0.066756
|   |   |   |   |   |   |   |   |   |   |   |   |   |   |   44 <= 0.666667: LOW (13.0/4.0)
|   |   |   |   |   |   |   |   |   |   |   |   |   |   |   44 > 0.666667
|   |   |   |   |   |   |   |   |   |   |   |   |   |   |   |   43 <= 0.067055: HIGH (2.0)
|   |   |   |   |   |   |   |   |   |   |   |   |   |   |   |   43 > 0.067055: NONE (3.0)
|   |   |   |   |   |   |   |   |   |   |   |   |   34 > 0.028115: NONE (2.0)
|   |   |   |   |   |   |   |   |   |   |   |   34 > 0.129433: LOW (3.0)
|   |   |   |   |   |   |   |   35 > 0.155863
|   |   |   |   |   |   |   |   |   22 <= 0.644585: LOW (8.0)
|   |   |   |   |   |   |   |   |   22 > 0.644585
|   |   |   |   |   |   |   |   |   |   35 <= 0.969896
|   |   |   |   |   |   |   |   |   |   |   4 <= 0.5
|   |   |   |   |   |   |   |   |   |   |   |   29 <= 0.587167
|   |   |   |   |   |   |   |   |   |   |   |   |   17 <= 0.141026: NONE (17.0/2.0)
|   |   |   |   |   |   |   |   |   |   |   |   |   17 > 0.141026: LOW (2.0/1.0)
|   |   |   |   |   |   |   |   |   |   |   |   29 > 0.587167: LOW (2.0)
|   |   |   |   |   |   |   |   |   |   |   4 > 0.5: LOW (2.0/1.0)
|   |   |   |   |   |   |   |   |   |   35 > 0.969896: HIGH (3.0)
|   |   |   |   |   |   |   3 > 0.444444
|   |   |   |   |   |   |   |   43 <= 0.05
|   |   |   |   |   |   |   |   |   43 <= 0.022222: NONE (11.0/1.0)
|   |   |   |   |   |   |   |   |   43 > 0.022222: LOW (3.0)
|   |   |   |   |   |   |   |   43 > 0.05: NONE (22.0)
|   |   |   |   |   |   13 > 0.478193
|   |   |   |   |   |   |   44 <= 0.25
|   |   |   |   |   |   |   |   29 <= 0.311373
|   |   |   |   |   |   |   |   |   1 <= 0.057732: HIGH (5.0)
|   |   |   |   |   |   |   |   |   1 > 0.057732: NONE (3.0)
|   |   |   |   |   |   |   |   29 > 0.311373
|   |   |   |   |   |   |   |   |   11 <= 0.482676: LOW (23.0/1.0)
|   |   |   |   |   |   |   |   |   11 > 0.482676
|   |   |   |   |   |   |   |   |   |   18 <= 0.529412: NONE (7.0)
|   |   |   |   |   |   |   |   |   |   18 > 0.529412: LOW (3.0)
|   |   |   |   |   |   |   44 > 0.25
|   |   |   |   |   |   |   |   13 <= 0.865233
|   |   |   |   |   |   |   |   |   39 <= 0.44897: NONE (19.0/1.0)
|   |   |   |   |   |   |   |   |   39 > 0.44897
|   |   |   |   |   |   |   |   |   |   21 <= 0.929391
|   |   |   |   |   |   |   |   |   |   |   44 <= 0.583333
|   |   |   |   |   |   |   |   |   |   |   |   2 <= 0.01676
|   |   |   |   |   |   |   |   |   |   |   |   |   37 <= 0.789238: NONE (22.0/2.0)
|   |   |   |   |   |   |   |   |   |   |   |   |   37 > 0.789238
|   |   |   |   |   |   |   |   |   |   |   |   |   |   34 <= 0.049698
|   |   |   |   |   |   |   |   |   |   |   |   |   |   |   11 <= 0.139057
|   |   |   |   |   |   |   |   |   |   |   |   |   |   |   |   4 <= 0.25
|   |   |   |   |   |   |   |   |   |   |   |   |   |   |   |   |   31 <= 0.966134: LOW (11.0/1.0)
|   |   |   |   |   |   |   |   |   |   |   |   |   |   |   |   |   31 > 0.966134: NONE (2.0)
|   |   |   |   |   |   |   |   |   |   |   |   |   |   |   |   4 > 0.25: NONE (3.0/1.0)
|   |   |   |   |   |   |   |   |   |   |   |   |   |   |   11 > 0.139057: NONE (18.0/3.0)
|   |   |   |   |   |   |   |   |   |   |   |   |   |   34 > 0.049698: LOW (3.0)
|   |   |   |   |   |   |   |   |   |   |   |   2 > 0.01676: NONE (3.0/1.0)
|   |   |   |   |   |   |   |   |   |   |   44 > 0.583333
|   |   |   |   |   |   |   |   |   |   |   |   43 <= 0.019383
|   |   |   |   |   |   |   |   |   |   |   |   |   3 <= 0.5
|   |   |   |   |   |   |   |   |   |   |   |   |   |   43 <= 0.01171
|   |   |   |   |   |   |   |   |   |   |   |   |   |   |   3 <= 0.333333
|   |   |   |   |   |   |   |   |   |   |   |   |   |   |   |   1 <= 0.153535: LOW (4.0/1.0)
|   |   |   |   |   |   |   |   |   |   |   |   |   |   |   |   1 > 0.153535: NONE (2.0)
|   |   |   |   |   |   |   |   |   |   |   |   |   |   |   3 > 0.333333: NONE (3.0)
|   |   |   |   |   |   |   |   |   |   |   |   |   |   43 > 0.01171: LOW (2.0)
|   |   |   |   |   |   |   |   |   |   |   |   |   3 > 0.5
|   |   |   |   |   |   |   |   |   |   |   |   |   |   24 <= 0.882633: LOW (15.0)
|   |   |   |   |   |   |   |   |   |   |   |   |   |   24 > 0.882633: NONE (2.0)
|   |   |   |   |   |   |   |   |   |   |   |   43 > 0.019383
|   |   |   |   |   |   |   |   |   |   |   |   |   16 <= 0.019376: NONE (8.0)
|   |   |   |   |   |   |   |   |   |   |   |   |   16 > 0.019376
|   |   |   |   |   |   |   |   |   |   |   |   |   |   45 <= 0.508065
|   |   |   |   |   |   |   |   |   |   |   |   |   |   |   41 <= 0.000339: NONE (2.0/1.0)
|   |   |   |   |   |   |   |   |   |   |   |   |   |   |   41 > 0.000339: LOW (9.0/1.0)
|   |   |   |   |   |   |   |   |   |   |   |   |   |   45 > 0.508065: NONE (6.0)
|   |   |   |   |   |   |   |   |   |   21 > 0.929391
|   |   |   |   |   |   |   |   |   |   |   44 <= 0.75
|   |   |   |   |   |   |   |   |   |   |   |   11 <= 0.532958
|   |   |   |   |   |   |   |   |   |   |   |   |   22 <= 0.805821: LOW (4.0)
|   |   |   |   |   |   |   |   |   |   |   |   |   22 > 0.805821
|   |   |   |   |   |   |   |   |   |   |   |   |   |   4 <= 0.25
|   |   |   |   |   |   |   |   |   |   |   |   |   |   |   41 <= 0.00005: LOW (2.0)
|   |   |   |   |   |   |   |   |   |   |   |   |   |   |   41 > 0.00005: NONE (10.0/1.0)
|   |   |   |   |   |   |   |   |   |   |   |   |   |   4 > 0.25
|   |   |   |   |   |   |   |   |   |   |   |   |   |   |   11 <= 0.115865: LOW (3.0)
|   |   |   |   |   |   |   |   |   |   |   |   |   |   |   11 > 0.115865: NONE (3.0)
|   |   |   |   |   |   |   |   |   |   |   |   11 > 0.532958: HIGH (3.0/1.0)
|   |   |   |   |   |   |   |   |   |   |   44 > 0.75
|   |   |   |   |   |   |   |   |   |   |   |   1 <= 0.040706: NONE (3.0)
|   |   |   |   |   |   |   |   |   |   |   |   1 > 0.040706: HIGH (5.0/1.0)
|   |   |   |   |   |   |   |   13 > 0.865233
|   |   |   |   |   |   |   |   |   21 <= 0.824808: LOW (3.0/1.0)
|   |   |   |   |   |   |   |   |   21 > 0.824808: HIGH (3.0)
|   |   |   |   |   25 > 0.166847
|   |   |   |   |   |   45 <= 0.935484
|   |   |   |   |   |   |   35 <= 0.477185
|   |   |   |   |   |   |   |   24 <= 0.908132
|   |   |   |   |   |   |   |   |   19 <= 0.833333
|   |   |   |   |   |   |   |   |   |   23 <= 0.906788
|   |   |   |   |   |   |   |   |   |   |   45 <= 0.153846
|   |   |   |   |   |   |   |   |   |   |   |   41 <= 0.000334: NONE (9.0)
|   |   |   |   |   |   |   |   |   |   |   |   41 > 0.000334
|   |   |   |   |   |   |   |   |   |   |   |   |   34 <= 0.147272
|   |   |   |   |   |   |   |   |   |   |   |   |   |   20 <= 0.05781
|   |   |   |   |   |   |   |   |   |   |   |   |   |   |   37 <= 0.806792
|   |   |   |   |   |   |   |   |   |   |   |   |   |   |   |   44 <= 0.222222: NONE (8.0)
|   |   |   |   |   |   |   |   |   |   |   |   |   |   |   |   44 > 0.222222
|   |   |   |   |   |   |   |   |   |   |   |   |   |   |   |   |   16 <= 0.012409: HIGH (2.0)
|   |   |   |   |   |   |   |   |   |   |   |   |   |   |   |   |   16 > 0.012409: NONE (3.0)
|   |   |   |   |   |   |   |   |   |   |   |   |   |   |   37 > 0.806792
|   |   |   |   |   |   |   |   |   |   |   |   |   |   |   |   4 <= 0.25
|   |   |   |   |   |   |   |   |   |   |   |   |   |   |   |   |   29 <= 0.473042
|   |   |   |   |   |   |   |   |   |   |   |   |   |   |   |   |   |   19 <= 0.142857
|   |   |   |   |   |   |   |   |   |   |   |   |   |   |   |   |   |   |   21 <= 0.878127: LOW (4.0)
|   |   |   |   |   |   |   |   |   |   |   |   |   |   |   |   |   |   |   21 > 0.878127: HIGH (5.0/1.0)
|   |   |   |   |   |   |   |   |   |   |   |   |   |   |   |   |   |   19 > 0.142857
|   |   |   |   |   |   |   |   |   |   |   |   |   |   |   |   |   |   |   18 <= 0.708333: NONE (3.0)
